Cufon.registerFont({"w":1133,"face":{"font-family":"EZ Omega","font-weight":400,"font-stretch":"normal","units-per-em":"2048","panose-1":"2 11 5 2 5 5 8 2 3 4","ascent":"1638","descent":"-410","x-height":"25","cap-height":"5","bbox":"-2249 -1924 2296 572","underline-thickness":"105","underline-position":"-355","unicode-range":"U+0020-U+FB02"},"glyphs":{" ":{"w":566},"!":{"d":"290,-1399v82,0,112,77,104,169r-78,916r-52,0r-78,-943v-1,-81,30,-142,104,-142xm172,-93v0,-65,53,-119,118,-119v65,0,118,54,118,119v0,65,-53,118,-118,118v-65,0,-118,-53,-118,-118","w":566},"\"":{"d":"251,-1428v68,0,92,65,83,137r-49,403r-68,0r-50,-403v-7,-75,15,-137,84,-137xm589,-1428v68,0,92,65,83,137r-49,403r-68,0r-50,-403v-7,-75,15,-137,84,-137","w":831},"#":{"d":"119,-956v63,15,178,14,263,14r46,-264v11,-54,22,-138,18,-191v53,5,79,5,132,0v-44,123,-66,309,-94,455r252,0r46,-264v11,-54,22,-138,18,-191v53,5,79,5,132,0v-44,123,-66,309,-94,455v79,1,184,0,242,-14v-4,49,-4,74,0,123v-62,-15,-176,-14,-259,-14r-54,308v80,1,185,0,244,-14v-4,49,-4,74,0,123v-62,-15,-176,-14,-260,-14r-49,281v-11,54,-22,138,-18,191v-52,-7,-80,-7,-132,0v46,-129,68,-320,97,-472r-252,0r-49,281v-11,54,-22,138,-18,191v-52,-7,-80,-7,-132,0v46,-129,68,-320,97,-472v-76,3,-186,-1,-245,14v5,-49,5,-74,0,-123v63,15,178,14,262,14r54,-308v-77,3,-187,-1,-247,14v5,-49,5,-74,0,-123xm467,-847r-53,308r252,0r53,-308r-252,0"},"$":{"d":"152,-1009v0,-188,170,-338,347,-363v-4,-51,5,-114,-16,-150v53,7,79,7,132,0v-19,34,-11,95,-14,144v137,5,247,49,332,116v-41,59,-56,92,-78,167v-59,-103,-126,-183,-257,-193r-3,487v133,43,231,94,293,152v69,64,103,148,103,251v0,217,-186,398,-392,421v6,69,-9,157,16,208v-53,-5,-79,-5,-132,0v23,-50,10,-136,16,-203v-153,-4,-273,-47,-347,-129v31,-61,43,-94,52,-171v51,132,131,199,296,210v3,-169,4,-360,4,-572v-119,-37,-206,-83,-261,-138v-61,-60,-91,-139,-91,-237xm500,-1280v-104,21,-197,107,-194,221v3,131,86,190,198,231v0,-166,-1,-316,-4,-452xm598,-65v135,-19,248,-125,244,-271v-4,-153,-110,-222,-247,-268v-1,200,0,380,3,539"},"%":{"d":"494,-734v-173,0,-294,-146,-294,-325v0,-179,121,-326,294,-326v174,0,295,146,295,326v0,180,-121,325,-295,325xm494,-1318v-121,0,-160,117,-159,259v0,142,38,258,159,258v122,0,160,-116,160,-258v0,-143,-37,-259,-160,-259xm609,48r240,-727v0,0,167,-535,222,-732v54,12,80,12,134,0r-240,727v0,0,-167,535,-222,732v-54,-13,-80,-13,-134,0xm1320,8v-173,0,-294,-146,-294,-325v0,-179,121,-326,294,-326v174,0,295,146,295,326v0,180,-121,325,-295,325xm1320,-576v-121,0,-160,117,-159,259v0,142,38,258,159,258v122,0,160,-116,160,-258v0,-143,-37,-259,-160,-259","w":1813},"&":{"d":"524,-758v-55,-82,-127,-217,-130,-315v-3,-171,115,-298,283,-298v153,0,283,83,283,225v0,150,-151,294,-271,367r352,431v87,-123,161,-256,223,-405v32,36,49,53,85,85v-74,135,-161,264,-256,381r235,261v29,34,36,44,21,31v-68,-10,-175,-7,-248,-5r-124,-162v-119,103,-232,186,-420,190v-221,5,-393,-141,-387,-356v6,-217,172,-342,354,-430xm347,-378v-8,227,212,366,423,265v57,-27,114,-65,162,-108r-365,-476v-114,63,-214,170,-220,319xm679,-1282v-94,0,-151,76,-149,176v2,84,67,201,115,268v83,-57,180,-167,182,-278v2,-95,-56,-166,-148,-166","w":1473},"'":{"d":"289,-1428v68,0,92,65,83,137r-49,403r-68,0r-50,-403v-7,-75,15,-137,84,-137","w":566},"(":{"d":"463,248v-194,-230,-315,-458,-315,-838v0,-378,122,-608,315,-837r54,49v-156,209,-234,437,-234,788v0,351,78,580,234,789","w":566},")":{"d":"110,-1427v193,230,314,457,314,838v0,378,-122,609,-314,837r-54,-49v155,-209,233,-438,233,-788v0,-351,-78,-581,-233,-789","w":566},"*":{"d":"214,-1161v34,-41,49,-65,68,-119v97,83,152,124,256,188v-6,-119,-13,-198,-36,-316v55,11,83,11,137,0v-22,123,-33,187,-35,317v95,-62,162,-107,255,-188v19,55,33,78,68,119v-123,44,-188,70,-292,126r116,55v48,21,106,44,175,68v-34,41,-49,65,-68,119v-93,-81,-159,-127,-255,-188v2,129,13,193,35,316v-55,-11,-83,-11,-137,0v22,-122,33,-188,35,-317v-95,62,-162,107,-255,188v-19,-55,-33,-78,-68,-119v123,-44,188,-70,292,-126r-116,-55v-48,-21,-106,-44,-175,-68"},"+":{"d":"680,-446r-474,0r0,-108r474,0r0,-474r108,0r0,474r474,0r0,108r-474,0r0,474r-108,0r0,-474","w":1453},",":{"d":"89,360r149,-473v22,-56,53,-120,133,-91v63,23,52,106,20,160r-255,425","w":566},"-":{"d":"30,-565r512,0r0,143r-512,0r0,-143","w":566},".":{"d":"168,-93v0,-65,53,-119,118,-119v65,0,118,54,118,119v0,65,-53,118,-118,118v-65,0,-118,-53,-118,-118","w":566},"\/":{"d":"641,-1525v-26,41,-64,134,-86,196r-203,578r-194,580v-20,56,-46,143,-50,199v-66,-8,-97,-8,-164,0v26,-41,63,-133,86,-196r203,-578r194,-580v19,-59,45,-143,50,-199v66,7,98,7,164,0","w":566},"0":{"d":"214,-156v-169,-231,-161,-804,6,-1030v92,-125,208,-192,361,-192v147,0,258,64,345,184v168,231,161,804,-6,1030v-92,125,-208,192,-361,192v-146,0,-257,-64,-345,-184xm794,-214v92,-177,95,-748,0,-926v-53,-98,-124,-150,-224,-150v-99,0,-169,54,-222,155v-92,177,-96,747,0,925v53,98,123,150,222,150v100,0,171,-53,224,-154"},"1":{"d":"514,5v27,-326,16,-844,12,-1195v-92,46,-167,93,-225,129r-81,-92v131,-45,375,-159,487,-225v-7,184,-10,414,-10,689v0,164,1,311,4,442v2,87,5,147,7,181v2,34,3,58,6,71v-57,-7,-143,-7,-200,0"},"2":{"d":"556,-1378v230,-3,399,144,399,369v0,97,-32,190,-88,283v-72,120,-373,423,-537,585r285,1v82,0,157,-2,225,-5v68,-3,111,-7,128,-12v-9,71,-9,106,0,177v-125,-23,-276,-20,-436,-20v-175,0,-321,5,-438,14r-12,-20r370,-381v111,-115,192,-220,241,-317v49,-97,74,-196,74,-299v1,-176,-69,-289,-233,-289v-148,0,-233,109,-262,244v-29,-56,-47,-83,-84,-132v63,-105,212,-196,368,-198"},"3":{"d":"438,-51v213,3,325,-126,325,-343v0,-209,-172,-318,-374,-258v7,-44,7,-68,0,-112v88,35,201,4,249,-54v42,-50,66,-119,66,-210v1,-160,-61,-271,-208,-271v-117,0,-187,87,-246,177v-17,-55,-28,-80,-53,-129v78,-65,199,-125,324,-127v218,-3,371,113,371,321v0,172,-93,291,-238,326v176,27,303,144,303,335v0,335,-341,485,-687,402v-57,-14,-100,-33,-130,-54v14,-62,19,-94,25,-162v66,87,144,157,273,159"},"4":{"d":"883,-1349v-36,232,-16,536,-22,835v58,-3,135,2,182,-9v-7,67,-7,101,0,168v-46,-17,-119,-19,-181,-21r10,312v2,34,3,56,6,69v-56,-7,-141,-7,-197,0v20,-140,20,-211,21,-386r-159,-2v-201,0,-368,6,-502,18r-12,-18r349,-477r254,-368v22,-30,52,-87,64,-121v76,7,112,7,187,0xm702,-515r0,-670r-222,313r-242,355"},"5":{"d":"565,-848v236,0,412,153,412,383v0,308,-201,497,-512,493v-138,-1,-233,-30,-327,-83v23,-59,33,-89,49,-153v51,78,157,151,273,152v204,2,323,-164,323,-378v0,-200,-88,-328,-278,-328v-90,0,-171,50,-225,101r-17,-7v27,-173,27,-522,0,-695v176,20,493,27,674,-2v-8,69,-8,105,0,175v-143,-22,-388,-11,-563,-14r-16,408v64,-32,137,-52,207,-52"},"6":{"d":"578,28v-301,-4,-453,-262,-453,-588v0,-235,55,-431,172,-585v139,-183,292,-259,538,-225v12,43,20,62,38,101v-194,-60,-345,15,-443,191v-65,115,-103,262,-115,443v62,-106,188,-190,323,-190v252,0,408,159,408,412v0,256,-207,445,-468,441xm601,-737v-168,-2,-274,166,-274,349v0,179,98,331,264,331v168,0,264,-163,264,-347v0,-196,-74,-331,-254,-333"},"7":{"d":"1086,-1350r9,19v-107,174,-235,395,-382,664r-278,527v-21,42,-51,110,-59,154v-81,-11,-121,-11,-203,0v33,-36,88,-119,120,-175r599,-1020v-72,-3,-152,-6,-240,-4r-350,7v-44,3,-73,6,-86,10v9,-77,9,-117,0,-194v217,20,609,15,870,12"},"8":{"d":"947,-1044v0,133,-96,239,-209,278v164,48,278,186,278,386v0,248,-200,408,-457,408v-257,0,-456,-160,-456,-408v0,-199,114,-338,277,-385v-113,-41,-209,-144,-209,-279v0,-206,173,-334,388,-334v216,0,388,128,388,334xm347,-1043v0,136,80,236,212,236v131,0,212,-100,212,-236v0,-133,-85,-247,-212,-247v-123,0,-212,117,-212,247xm830,-369v0,-192,-93,-350,-271,-350v-177,0,-270,158,-270,350v0,176,101,309,270,309v169,0,271,-133,271,-309"},"9":{"d":"562,-1378v307,4,466,259,466,588v0,235,-58,430,-175,585v-147,193,-348,283,-593,201v-16,-58,-26,-85,-47,-139v70,44,126,84,214,84v127,0,228,-71,303,-212v61,-115,97,-262,107,-442v-60,105,-184,188,-317,188v-250,0,-403,-160,-403,-412v0,-252,192,-444,445,-441xm557,-613v167,0,269,-167,269,-349v0,-178,-95,-331,-259,-331v-167,0,-259,164,-259,347v0,194,71,333,249,333"},":":{"d":"168,-93v0,-65,53,-119,118,-119v65,0,118,54,118,119v0,65,-53,118,-118,118v-65,0,-118,-53,-118,-118xm168,-788v0,-65,53,-119,118,-119v65,0,118,54,118,119v0,65,-53,118,-118,118v-65,0,-118,-53,-118,-118","w":566},";":{"d":"89,360r149,-473v22,-56,53,-120,133,-91v63,23,52,106,20,160r-255,425xm171,-788v0,-65,53,-119,118,-119v65,0,118,54,118,119v0,65,-53,118,-118,118v-65,0,-118,-53,-118,-118","w":566},"<":{"d":"410,-542r0,-144r1225,-549r0,145r-1066,475r1066,479r0,145","w":2039},"=":{"d":"391,-434r1056,0r0,109r-1056,0r0,-109xm391,-676r1056,0r0,109r-1056,0r0,-109","w":1813},">":{"d":"1635,-542r-1225,551r0,-145r1066,-479r-1066,-475r0,-145r1225,549r0,144","w":2039},"?":{"d":"514,-1044v85,-119,1,-279,-138,-274v-68,2,-143,52,-178,96r-17,-111v58,-34,137,-64,215,-66v167,-3,299,108,293,271v-6,177,-81,249,-190,374v-53,60,-89,108,-113,141v-57,81,-35,207,69,208v37,0,69,-13,90,-31r-44,111v-161,26,-291,-73,-287,-222v5,-155,64,-218,157,-323v71,-80,118,-138,143,-174xm282,-93v0,-65,53,-119,118,-119v65,0,118,54,118,119v0,65,-53,118,-118,118v-65,0,-118,-53,-118,-118","w":793},"@":{"d":"754,-20v-154,0,-258,-107,-258,-263v0,-171,56,-329,170,-475v114,-146,238,-218,372,-218v105,0,181,47,230,142r38,-104r185,0v-58,125,-127,280,-204,468r-95,233v-27,61,-16,125,45,125v96,0,191,-61,284,-182v93,-121,140,-244,140,-369v0,-308,-280,-547,-597,-547v-422,0,-825,387,-825,806v0,360,328,590,711,583v244,-5,455,-93,606,-211r69,42v-183,156,-390,266,-686,272v-449,10,-838,-255,-838,-673v0,-477,438,-929,911,-929v390,0,745,282,745,657v0,323,-251,663,-555,663v-88,0,-146,-59,-159,-148v-95,81,-198,128,-289,128xm661,-241v0,89,48,138,136,138v61,0,115,-31,167,-89v69,-78,249,-443,230,-602v-8,-69,-46,-103,-115,-103v-83,0,-173,76,-271,229v-98,153,-147,296,-147,427","w":1813},"A":{"d":"361,-693v129,-278,227,-515,302,-706r49,0v75,189,174,424,296,704r199,448r119,252v-64,-7,-162,-7,-225,0v-45,-178,-137,-355,-203,-526v-147,-18,-370,-30,-512,0v-43,97,-80,189,-114,274v-43,108,-60,147,-85,252v-46,-7,-117,-7,-163,0v120,-217,230,-467,337,-698xm442,-653v119,19,280,13,399,-2r-197,-455","w":1360},"B":{"d":"183,5v28,-378,20,-945,7,-1339v-2,-34,-4,-57,-7,-70v126,9,261,1,392,0v161,0,283,25,363,76v80,51,120,128,120,230v0,177,-161,304,-330,339v220,28,376,137,376,364v0,263,-270,407,-563,400r-259,-5xm859,-1065v2,-208,-265,-263,-485,-221r0,490r125,0v196,3,359,-91,360,-269xm905,-416v0,-206,-165,-277,-395,-276r-136,0r0,582v39,6,81,9,126,9v245,1,405,-88,405,-315","w":1246},"C":{"d":"837,-61v175,-1,337,-72,428,-166r17,22v-9,45,-14,71,-17,121v-134,73,-267,109,-464,112v-415,5,-711,-291,-711,-704v0,-441,315,-757,756,-751v187,2,322,32,460,91v-11,33,-19,60,-26,84v-7,24,-14,53,-21,86r-33,1v-77,-93,-221,-171,-377,-173v-348,-1,-549,288,-549,656v0,336,217,623,537,621","w":1360},"D":{"d":"203,5v28,-378,19,-944,7,-1339v-2,-34,-4,-57,-7,-70v191,11,396,0,593,0v436,0,696,231,696,660v0,474,-325,755,-810,749r-375,-5xm1282,-760v-1,-360,-210,-541,-578,-539v-116,0,-217,3,-302,9r0,0v-6,167,-8,364,-8,590v0,227,2,424,6,589v86,9,186,12,300,11v396,-2,583,-249,582,-660","w":1586},"E":{"d":"147,16v28,-384,20,-959,7,-1360v-2,-34,-4,-58,-7,-71v210,24,529,24,739,-2v-8,39,-8,100,0,139v-142,-24,-377,-22,-542,-16r-6,514r181,-1v91,0,249,-5,315,-17v-8,38,-8,98,0,137v-128,-19,-341,-17,-495,-18v-1,221,1,412,6,575r205,2v96,1,265,-8,336,-21v-8,40,-8,101,0,141v-213,-24,-525,-26,-739,-2","w":1020},"F":{"d":"152,5v28,-380,19,-951,6,-1349v-2,-34,-3,-58,-6,-71v212,22,546,25,759,-2v-8,39,-8,100,0,139v-147,-25,-392,-21,-562,-16v-3,143,-5,311,-6,504r207,-2v92,0,248,-5,315,-17v-8,38,-8,98,0,137v-136,-17,-360,-18,-522,-20v0,165,1,314,4,445v2,88,5,149,7,183v2,34,3,56,6,69v-59,-7,-149,-7,-208,0","w":1020},"G":{"d":"1408,-649v-24,146,-22,449,-3,589v-166,59,-357,88,-574,88v-427,0,-743,-283,-743,-703v0,-442,320,-758,765,-752v225,3,395,45,548,126v-11,32,-19,59,-26,83v-7,24,-14,53,-21,87r-33,1v-95,-110,-261,-206,-445,-208v-360,-3,-578,281,-578,657v0,362,225,620,578,620v113,0,226,-23,339,-68r0,-142v-1,-173,-1,-237,-21,-378v60,7,154,7,214,0","w":1586},"H":{"d":"187,5v27,-378,20,-945,7,-1339v-2,-34,-4,-57,-7,-70v59,7,149,7,208,0v-16,154,-15,390,-17,588v235,21,596,21,830,0r-4,-336v-3,-88,-4,-148,-6,-182v-2,-34,-4,-57,-7,-70v59,7,149,7,208,0v-27,379,-20,943,-7,1338v2,34,4,58,7,71v-59,-7,-149,-7,-208,0v18,-188,16,-445,17,-685v-232,-23,-596,-21,-829,0v-2,160,-1,304,3,433v3,88,4,149,6,183v2,34,4,56,7,69v-59,-7,-149,-7,-208,0","w":1586},"I":{"d":"181,5v28,-378,20,-944,7,-1339v-2,-34,-4,-57,-7,-70v59,7,149,7,208,0v-27,378,-20,943,-7,1338v2,34,4,58,7,71v-59,-7,-149,-7,-208,0","w":566},"J":{"d":"386,-1404v-39,306,-14,843,-8,1222v4,299,-135,474,-420,480r-13,-74v205,-15,255,-146,253,-384r-8,-1062v-2,-84,-6,-145,-12,-182v60,7,149,7,208,0","w":566},"K":{"d":"378,-753v177,-151,491,-470,633,-646v31,1,67,1,106,1v39,0,74,-2,105,-6v-226,189,-449,415,-660,624r222,267r393,459v29,34,48,53,55,59v-73,-7,-186,-7,-259,0v-73,-130,-189,-255,-297,-378r-298,-338r3,464v3,87,5,147,7,181v2,34,3,58,6,71v-59,-7,-149,-7,-208,0v27,-378,19,-944,6,-1339v-2,-34,-3,-57,-6,-70v59,7,149,7,208,0v-18,176,-15,428,-16,651","w":1246},"L":{"d":"200,16v27,-381,19,-951,6,-1350v-2,-34,-3,-57,-6,-70v59,7,149,7,208,0v-29,353,-15,932,-11,1300r218,2v96,1,265,-8,336,-21v-8,40,-8,101,0,141v-217,-24,-533,-27,-751,-2","w":1020},"M":{"d":"889,6r-36,0r-361,-707r-154,-288r-100,853v-4,54,-6,100,-4,141v-44,-7,-110,-7,-154,0v47,-195,80,-482,113,-704v41,-279,68,-513,88,-700r36,0r378,707r222,398r595,-1105r36,0v15,187,38,421,71,701v19,166,38,316,56,451v12,85,21,145,27,179v6,34,10,58,15,73v-55,-10,-143,-7,-203,-5v-15,-187,-38,-421,-71,-701r-35,-293r-159,288v-151,281,-271,518,-360,712","w":1813},"N":{"d":"1393,-1404v-30,386,-16,1055,-7,1432r-56,0r-668,-724r-339,-353r0,349v1,168,3,319,7,453v3,85,5,145,7,179v2,34,4,58,7,73v-40,-7,-102,-7,-142,0v27,-377,19,-939,6,-1333v-2,-34,-3,-58,-6,-71r60,0r668,724r337,350r1,-360v0,-173,-1,-328,-4,-467v-2,-88,-4,-148,-6,-182v-2,-34,-4,-57,-7,-70v40,7,102,7,142,0","w":1586},"O":{"d":"841,28v-428,0,-748,-283,-748,-703v0,-443,324,-752,770,-752v430,0,749,283,749,704v0,444,-324,751,-771,751xm852,-61v350,0,550,-286,550,-655v0,-358,-206,-622,-550,-622v-348,0,-549,288,-549,656v0,356,207,621,549,621","w":1699},"P":{"d":"176,5v27,-378,19,-940,6,-1335v-2,-34,-3,-57,-6,-70v150,7,275,-4,421,-4v298,0,485,85,485,355v0,284,-228,410,-537,410v-66,0,-125,-3,-178,-10v-1,148,1,282,4,402v3,88,5,149,7,183v2,34,3,56,6,69v-59,-7,-149,-7,-208,0xm881,-1039v0,-190,-135,-265,-340,-264v-65,0,-123,3,-176,8r0,553v42,4,87,6,136,6v211,3,380,-106,380,-303"},"Q":{"d":"1587,329v-83,30,-120,50,-191,95v-123,-137,-311,-273,-455,-399r-103,3v-428,8,-748,-283,-748,-703v0,-443,324,-752,770,-752v430,0,749,283,749,704v0,358,-216,630,-510,716r256,186v71,51,168,120,232,150xm849,-1338v-348,0,-549,288,-549,656v0,356,207,621,549,621v350,0,550,-286,550,-655v0,-358,-206,-622,-550,-622","w":1699},"R":{"d":"179,5v28,-378,19,-944,7,-1339v-2,-34,-4,-57,-7,-70v163,11,293,1,444,0v272,-1,445,85,451,332v5,207,-211,343,-421,372r247,316r270,328v29,34,47,54,55,61v-72,-7,-184,-7,-256,0v-71,-134,-189,-271,-293,-399r-237,-293r-69,0v0,163,1,309,4,440v2,87,4,147,6,181v2,34,4,58,7,71v-59,-7,-149,-7,-208,0xm873,-1063v0,-176,-140,-249,-333,-248r-172,7r0,529v30,-3,61,-4,94,-3v219,3,411,-91,411,-285","w":1246},"S":{"d":"853,-1336v-20,60,-29,89,-43,154r-29,0v-47,-87,-134,-154,-254,-156v-145,-3,-258,100,-256,243v0,63,23,117,69,162v46,45,120,82,219,118v217,78,343,152,351,403v8,243,-212,440,-458,440v-160,0,-283,-43,-359,-126v16,-54,21,-82,30,-141r32,-9v52,98,175,185,313,187v168,2,293,-122,293,-289v0,-69,-23,-128,-69,-175v-46,-47,-119,-88,-220,-123v-128,-44,-219,-96,-274,-157v-54,-60,-81,-140,-81,-240v0,-213,192,-386,410,-382v134,3,241,35,326,91","w":1020},"T":{"d":"476,5v28,-356,18,-940,9,-1304r-309,6v-67,3,-112,7,-135,12v8,-37,8,-97,0,-134v75,5,159,11,253,12r323,5v55,0,129,-2,223,-5v94,-3,176,-7,247,-12v-8,37,-8,97,0,134v-98,-15,-287,-18,-413,-17v-5,167,-7,366,-7,598v0,168,1,319,4,453v2,87,5,147,7,181v2,34,3,58,6,71v-59,-7,-149,-7,-208,0"},"U":{"d":"1408,-1404v-30,226,-24,513,-24,794v0,405,-192,638,-586,638v-390,0,-573,-180,-574,-568r-2,-612v-1,-83,-3,-140,-4,-174v-1,-34,-4,-60,-7,-78v59,7,149,7,208,0v-27,225,-21,521,-21,801v0,334,117,524,433,524v349,0,443,-227,441,-606r-2,-467v-1,-85,-3,-144,-4,-178v-1,-34,-3,-59,-6,-74v43,7,105,7,148,0","w":1586},"V":{"d":"134,-1152r-113,-252v67,7,169,7,236,0v24,102,41,142,84,252r180,459r192,472r191,-471r175,-460v41,-109,57,-149,78,-252v47,7,118,7,165,0v-33,67,-78,176,-109,252r-471,1158v-57,-9,-85,-9,-142,0v-70,-190,-162,-425,-277,-706","w":1360},"W":{"d":"486,6v-53,-189,-123,-425,-214,-705r-147,-453r-65,-190v-12,-34,-20,-54,-25,-62v62,7,159,7,220,0v47,241,118,455,199,710r149,469r160,-471v93,-283,168,-519,223,-709v51,8,76,8,127,0v57,190,131,427,227,709r160,470v46,-137,95,-293,147,-468r136,-458v33,-108,44,-146,59,-252v46,7,117,7,163,0r-95,252r-158,452v-95,281,-172,516,-229,706v-57,-9,-84,-9,-142,0v-55,-190,-127,-426,-218,-708r-143,-436r-155,436v-99,282,-178,518,-237,708v-57,-9,-85,-9,-142,0","w":2039},"X":{"d":"241,-247r305,-458r-277,-447v-55,-87,-93,-147,-116,-180v-23,-33,-41,-57,-54,-72v67,7,170,7,237,0v80,179,213,367,313,543r186,-291v71,-113,100,-152,144,-252v48,7,119,7,167,0r-186,252r-259,380r437,718v21,34,35,53,40,59v-65,-7,-167,-7,-233,0v-40,-103,-66,-143,-129,-252r-217,-370r-232,370v-66,109,-92,149,-134,252v-48,-7,-119,-7,-167,0v5,-5,20,-25,43,-59","w":1246},"Y":{"d":"529,5v22,-166,14,-333,16,-578r-221,-375r-249,-394v-22,-34,-36,-55,-43,-62v71,7,182,7,252,0v45,136,127,259,198,390v65,120,126,221,179,306r0,0v51,-81,106,-177,167,-288r86,-156v59,-104,80,-144,118,-252v51,7,128,7,179,0v-49,65,-118,176,-165,252r-118,189r-207,348r3,453v2,67,6,122,13,167v-59,-7,-149,-7,-208,0","w":1246},"Z":{"d":"1176,17v-176,-19,-431,-15,-630,-15v-207,0,-379,3,-516,10r-9,-39v129,-173,288,-391,465,-661r397,-605r-439,0v-71,0,-140,1,-207,3v-67,2,-110,5,-129,8v8,-37,8,-97,0,-134v298,33,770,20,1053,10r9,39v-129,173,-284,394,-465,661r-398,607r332,2v114,0,225,-3,332,-7v107,-4,176,-9,205,-14v-8,38,-8,97,0,135","w":1246},"[":{"d":"149,323v23,-433,23,-1304,0,-1736v101,17,304,17,405,0r0,119v-57,-14,-141,-25,-226,-31r0,1560v84,-6,169,-17,226,-31r0,119v-101,-17,-304,-17,-405,0","w":566},"\\":{"d":"463,28v-4,-53,-30,-143,-48,-198r-194,-582r-203,-579v-22,-62,-60,-153,-87,-194v66,7,97,7,163,0v4,53,30,143,48,198r194,582r203,579v22,62,60,153,87,194v-65,-8,-97,-8,-163,0","w":566},"]":{"d":"421,323v-101,-17,-305,-17,-406,0r0,-119v57,14,142,25,227,31r0,-1560v-84,6,-170,17,-227,31r0,-119v101,17,305,17,406,0v-23,433,-23,1304,0,1736","w":566},"^":{"d":"99,-1087v133,-72,314,-295,359,-449r106,0v45,155,228,378,360,449r0,94v-126,-37,-288,-145,-413,-258v-126,112,-286,221,-412,258r0,-94","w":1020},"_":{"d":"0,512r0,-105r1020,0r0,105r-1020,0","w":1020},"`":{"d":"614,-1084v-65,-64,-121,-118,-170,-162v-42,-38,-92,-81,-151,-128r4,-34v88,17,131,18,217,0v60,135,95,199,171,324r-71,0"},"a":{"d":"682,-108v-70,73,-201,133,-323,133v-162,0,-288,-105,-285,-263v3,-167,122,-243,281,-274r253,-49v62,-12,76,-33,76,-105v0,-163,-79,-255,-238,-255v-136,1,-217,59,-261,159r-23,0r-1,-116v72,-62,194,-115,315,-116v224,-2,363,111,363,328r0,519v-4,71,32,114,98,95r11,45v-38,22,-87,32,-147,32v-72,0,-107,-62,-119,-133xm441,-85v111,0,196,-50,243,-119r0,-295v-180,38,-420,41,-424,241v-2,112,68,173,181,173","w":982},"b":{"d":"612,25v-119,0,-219,-50,-288,-138r-176,141r-17,-7v8,-31,12,-93,13,-140v4,-180,6,-391,6,-633v0,-227,-1,-426,-5,-597v-2,-87,-1,-122,-12,-176v54,9,137,9,191,0v-23,218,-14,461,-16,738v66,-121,196,-207,342,-207v253,0,412,208,412,472v0,300,-168,547,-450,547xm313,-434v0,211,77,373,273,373v218,0,290,-188,290,-436v0,-228,-70,-411,-268,-411v-95,0,-167,41,-218,123v-51,82,-77,199,-77,351"},"c":{"d":"631,-48v123,-2,206,-58,272,-133r18,23r-18,90v-80,58,-186,91,-319,93v-294,4,-504,-208,-504,-501v0,-362,305,-594,686,-496v60,15,117,34,172,61v-20,57,-29,88,-42,151r-29,0v-46,-92,-139,-161,-268,-161v-221,0,-333,209,-333,453v0,225,150,423,365,420","w":982},"d":{"d":"839,-212v-61,135,-197,237,-370,237v-255,0,-406,-229,-406,-502v0,-287,167,-517,438,-517v135,0,251,67,319,172v1,-197,0,-373,-4,-527v-1,-58,-4,-99,-6,-122v-2,-23,-3,-41,-6,-54v54,9,137,9,191,0v-11,53,-10,89,-12,176v-4,168,-7,363,-5,586r5,592v2,84,2,115,12,176v-49,-7,-124,-7,-173,0v11,-54,12,-133,17,-217xm820,-493v0,-234,-79,-415,-286,-415v-216,0,-285,190,-285,437v0,229,72,410,273,410v205,0,298,-201,298,-432"},"e":{"d":"589,-48v149,0,248,-64,328,-152r18,23v-9,35,-14,51,-18,90v-97,69,-219,110,-376,112v-280,3,-466,-216,-466,-502v0,-291,177,-517,457,-517v307,0,443,205,421,529v-195,-24,-471,-16,-696,-17v-11,259,95,434,332,434xm527,-921v-177,0,-248,160,-265,352r505,0v12,-193,-71,-352,-240,-352","w":1020},"f":{"d":"348,-969v73,1,167,-3,218,-19v-4,50,-4,74,0,124v-54,-24,-145,-15,-219,-20r5,713v2,84,2,115,12,176v-54,-7,-137,-7,-191,0v24,-256,14,-569,17,-887v-48,2,-102,3,-137,18v5,-50,5,-74,0,-124v34,17,86,21,137,19v-1,-143,38,-272,117,-388v79,-116,168,-174,268,-174v15,0,31,2,46,8v-9,73,-9,107,0,180v-92,-57,-244,-43,-275,53v-19,58,-21,164,2,321","w":566},"g":{"d":"893,-688v-3,219,-213,332,-462,314v-73,-5,-139,15,-136,89v3,63,58,73,136,74r210,0v199,-1,350,68,352,246v3,232,-260,385,-515,385v-191,0,-392,-95,-399,-261v-5,-119,132,-219,250,-249v-89,-12,-166,-54,-164,-139v3,-89,71,-145,149,-171v-114,-38,-210,-143,-208,-276v4,-219,212,-340,458,-316v131,13,294,6,411,-13v-5,43,-5,66,0,110r-191,-16v72,55,109,132,109,223xm707,-692v0,-130,-80,-227,-208,-227v-131,0,-207,108,-207,247v0,139,72,225,207,225v132,1,208,-107,208,-245xm514,-77v-162,-2,-294,66,-294,211v0,150,127,211,294,211v163,0,332,-92,332,-238v0,-147,-154,-182,-332,-184","w":1020},"h":{"d":"583,-884v-188,0,-264,126,-260,328r9,494v2,23,5,46,8,67v-54,-7,-137,-7,-191,0v23,-228,17,-474,17,-767v0,-222,-1,-418,-5,-587v-1,-57,-3,-97,-5,-121v-2,-24,-4,-42,-7,-55v53,9,133,9,186,0v-34,184,-16,471,-21,718v64,-105,184,-187,328,-187v204,0,330,140,330,347r0,476v0,75,4,102,14,176v-54,-7,-136,-7,-190,0v23,-165,14,-383,17,-586v2,-172,-73,-303,-230,-303"},"i":{"d":"191,5v28,-255,19,-643,8,-918v-1,-23,-5,-44,-8,-61v54,9,137,9,191,0v-26,130,-17,330,-17,487v0,118,1,223,4,316v1,53,3,92,5,115v2,23,5,44,8,61v-54,-7,-137,-7,-191,0xm185,-1327v0,-57,47,-104,104,-104v57,0,104,47,104,104v0,57,-47,104,-104,104v-57,0,-104,-47,-104,-104","w":566},"j":{"d":"-6,359v177,-38,204,-160,210,-398r1,-237v0,-198,-2,-372,-5,-522v-3,-86,-2,-118,-12,-176v55,9,140,9,195,0v-33,257,-17,682,-17,1000v0,236,-131,376,-354,393xm177,-1327v0,-57,47,-104,104,-104v57,0,104,47,104,104v0,57,-47,104,-104,104v-57,0,-104,-47,-104,-104","w":566},"k":{"d":"331,-1525v-27,275,-13,635,-17,973v41,0,58,-1,80,-22v49,-45,104,-98,164,-159r63,-65v64,-66,87,-95,142,-176v55,7,139,7,193,0v-59,47,-360,315,-461,412r342,391v77,83,104,115,182,176v-76,-7,-196,-7,-272,0v-52,-101,-126,-179,-199,-269v-76,-94,-145,-172,-204,-235r-29,0v0,118,1,227,4,328v3,86,2,118,12,176v-54,-7,-137,-7,-191,0v22,-231,17,-473,17,-767v0,-222,-1,-418,-5,-587v-2,-87,-1,-122,-12,-176v54,9,137,9,191,0","w":1020},"l":{"d":"385,-1525v-32,388,-12,913,-12,1354v0,84,2,115,12,176v-54,-7,-137,-7,-191,0v31,-424,15,-999,8,-1470v0,-23,-4,-43,-8,-60v54,9,137,9,191,0","w":566},"m":{"d":"143,5v28,-255,19,-643,8,-918v-1,-23,-5,-44,-8,-61v53,9,133,9,186,0v-14,36,-13,110,-18,167v59,-104,175,-187,311,-187v146,0,253,83,288,203v60,-109,177,-203,321,-203v191,0,309,136,306,331r-1,176v0,118,1,223,4,316v1,53,3,92,5,115v2,23,5,44,8,61v-54,-7,-137,-7,-191,0v24,-180,14,-426,16,-646v1,-142,-69,-243,-203,-243v-202,0,-248,171,-248,397v0,118,1,223,4,316v1,53,3,92,5,115v2,23,5,44,8,61v-54,-7,-137,-7,-191,0v24,-181,14,-426,16,-646v1,-142,-69,-243,-203,-243v-202,0,-249,170,-249,397v0,118,1,223,4,316v1,53,3,91,5,115v2,24,5,44,8,61v-54,-7,-137,-7,-191,0","w":1699},"n":{"d":"148,5v28,-257,19,-653,6,-927v-2,-24,-3,-41,-6,-52v51,9,133,9,184,0v-14,35,-12,108,-18,164v65,-102,185,-184,328,-184v204,0,330,140,330,347r0,476v0,75,4,102,14,176v-54,-7,-136,-7,-190,0v23,-169,14,-396,17,-604v2,-167,-80,-285,-238,-285v-208,0,-253,166,-253,397v0,118,1,223,4,316v1,53,3,92,5,115v2,23,5,44,8,61v-54,-7,-137,-7,-191,0"},"o":{"d":"555,25v-282,0,-474,-214,-474,-501v0,-300,208,-518,506,-518v282,0,474,214,474,502v0,301,-207,517,-506,517xm571,-48v208,0,304,-214,304,-450v0,-242,-87,-423,-304,-423v-208,0,-304,215,-304,451v0,242,86,422,304,422"},"p":{"d":"136,425v24,-210,17,-433,17,-701v0,-198,-2,-372,-5,-522v-3,-86,-2,-118,-12,-176v51,9,128,9,179,0v-13,55,-13,117,-20,201v66,-125,198,-221,356,-221v251,0,408,209,408,472v0,301,-170,547,-454,547v-123,0,-227,-58,-295,-154r5,378v3,86,2,118,12,176v-54,-7,-137,-7,-191,0xm311,-468v1,224,71,407,273,407v218,0,289,-188,289,-436v0,-229,-73,-411,-273,-411v-218,0,-291,190,-289,440"},"q":{"d":"998,-974v-24,209,-17,432,-17,699v0,198,2,373,5,524v3,86,2,118,12,176v-54,-7,-137,-7,-191,0v21,-161,14,-358,16,-560v-71,99,-185,160,-318,160v-265,0,-431,-223,-431,-502v0,-286,165,-517,434,-517v142,0,268,84,328,203r-7,-119v-2,-24,-5,-45,-8,-64v50,7,127,7,177,0xm541,-61v208,0,283,-173,282,-407v0,-138,-25,-246,-75,-324v-50,-78,-118,-116,-207,-116v-211,0,-281,181,-281,420v0,237,74,427,281,427"},"r":{"d":"166,5v28,-255,19,-642,8,-917v-1,-24,-5,-45,-8,-62v57,9,143,9,200,0v-11,55,-14,97,-18,182v72,-114,182,-243,342,-192v-24,65,-34,97,-36,178v-32,-20,-60,-29,-108,-29v-167,0,-206,156,-206,348v0,118,1,223,4,316v3,59,4,100,6,123v2,23,4,41,7,53v-54,-7,-137,-7,-191,0","w":680},"s":{"d":"107,-706v-4,-162,149,-288,316,-288v100,0,188,27,248,69v-30,52,-42,80,-65,138v-32,-77,-97,-134,-196,-136v-98,-2,-174,72,-170,169v5,122,87,152,208,186v167,47,263,85,269,263v6,185,-167,330,-357,330v-117,0,-207,-22,-269,-73v26,-56,37,-85,57,-145v44,84,120,145,237,147v113,2,208,-75,203,-184v-5,-122,-89,-151,-210,-185v-176,-49,-266,-96,-271,-291","w":793},"t":{"d":"324,-226v-1,107,41,177,141,178v27,0,54,-8,81,-24v-3,24,-3,36,0,59v-45,25,-95,38,-150,38v-162,-1,-231,-85,-231,-251r0,-654v-48,0,-97,-2,-126,18v5,-51,5,-77,0,-128v29,21,81,16,126,20v1,-69,-1,-156,-16,-205v83,-27,120,-45,191,-86v-18,69,-16,198,-16,292v86,-5,163,7,217,-21v-5,51,-5,77,0,128v-53,-29,-132,-15,-217,-21r0,657","w":566},"u":{"d":"502,26v-200,0,-325,-143,-322,-348r1,-165v0,-116,-1,-220,-4,-311v-1,-53,-3,-92,-5,-115v-2,-23,-5,-44,-8,-61v54,9,137,9,191,0v-28,169,-13,405,-17,607v-3,165,80,283,236,283v205,0,250,-173,250,-403v0,-116,-1,-220,-4,-311v-1,-53,-3,-92,-5,-115v-2,-23,-5,-44,-8,-61v54,9,136,9,190,0v-27,210,-14,548,-14,803v0,74,5,103,14,176v-49,-7,-124,-7,-173,0v10,-59,10,-94,15,-177v-62,109,-188,198,-337,198"},"v":{"d":"110,-798r-60,-126v-12,-23,-21,-40,-28,-50v60,7,152,7,213,0v43,179,117,333,185,495r122,289r119,-286v48,-119,89,-226,123,-322v24,-67,31,-97,45,-176v48,7,119,7,167,0v-79,133,-159,332,-228,487v-86,194,-149,360,-196,493v-50,-8,-74,-8,-125,0v-49,-132,-116,-295,-199,-490","w":1020},"w":{"d":"407,6v-42,-132,-97,-296,-171,-490r-120,-314v-35,-85,-45,-117,-79,-176v59,7,150,7,209,0v32,180,98,334,157,495r96,261r93,-262v67,-197,120,-362,157,-495v52,7,80,7,132,0v39,133,91,298,162,493r96,266r96,-261v42,-118,78,-225,109,-321v21,-65,26,-96,38,-176v47,7,118,7,165,0v-79,132,-148,331,-212,487v-80,194,-136,360,-177,493v-46,-8,-68,-8,-115,0v-41,-133,-95,-298,-168,-493r-94,-252v-30,75,-61,158,-94,250v-71,196,-126,361,-165,495v-47,-8,-69,-8,-115,0","w":1586},"x":{"d":"110,-45r332,-427v-6,-5,-10,-11,-14,-17r-223,-309r-99,-130v-18,-24,-31,-39,-38,-46v62,7,154,7,216,0v65,129,170,256,252,379r152,-203v51,-67,69,-98,113,-176v44,7,112,7,156,0v-5,4,-60,59,-153,176r-218,274r357,478v19,24,34,40,45,51v-65,-7,-167,-7,-233,0v-69,-139,-179,-274,-265,-406r-167,230v-47,65,-64,96,-102,176v-44,-7,-112,-7,-156,0v11,-9,26,-26,45,-50","w":1020},"y":{"d":"675,-284v-91,197,-161,374,-221,529v-30,77,-43,105,-59,176v-50,-7,-128,-7,-178,0v100,-129,164,-273,247,-418v-51,-133,-119,-295,-202,-486r-141,-315v-27,-56,-46,-96,-58,-119v-12,-23,-23,-42,-33,-57v65,7,165,7,231,0v11,107,30,144,71,246r104,251r116,269r168,-414v58,-155,87,-204,103,-352v50,7,128,7,178,0v-122,214,-220,461,-326,690","w":1020},"z":{"d":"64,12r-18,-25v170,-206,476,-626,633,-869v-43,-2,-90,-3,-139,-2r-208,2v-50,0,-141,8,-179,16v8,-33,8,-85,0,-118v127,13,408,15,600,15v52,0,131,-7,172,-15r18,25v-171,207,-485,631,-644,873v58,3,121,4,190,3r122,-1v87,0,241,-6,304,-19v-8,33,-8,85,0,118v-236,-21,-629,-15,-851,-3","w":1020},"{":{"d":"765,487v-188,-36,-312,-98,-368,-188v-68,-108,-52,-258,-16,-408v57,-238,-41,-323,-214,-399r0,-48v174,-76,271,-160,214,-399v-36,-151,-52,-299,16,-408v56,-90,180,-152,368,-188r0,48v-181,47,-249,228,-208,476v21,119,15,249,-38,320v-40,53,-126,112,-259,174v133,64,219,123,259,176v53,70,58,201,38,320v-42,248,27,429,208,476r0,48","w":906},"|":{"d":"458,512r0,-2048r105,0r0,2048r-105,0","w":1020},"}":{"d":"141,487r0,-48v181,-47,249,-228,208,-476v-21,-119,-16,-249,38,-320v40,-53,126,-112,259,-176v-133,-62,-219,-121,-259,-174v-53,-71,-58,-201,-38,-320v42,-248,-27,-429,-208,-476r0,-48v188,36,312,98,368,188v68,108,52,258,16,408v-57,238,41,323,214,399r0,48v-174,76,-271,160,-214,399v36,151,52,299,-16,408v-56,90,-180,152,-368,188","w":906},"~":{"d":"713,-637v-131,0,-184,48,-268,122r-31,-33v62,-89,117,-151,166,-187v49,-36,101,-54,158,-54v209,0,481,135,662,135v127,0,177,-50,250,-130r34,36v-76,152,-133,240,-324,244v-224,5,-447,-133,-647,-133","w":2039},"\u00a0":{"w":566},"\u00a1":{"d":"290,420v-82,0,-112,-77,-104,-169r78,-883r52,0r78,910v1,81,-30,142,-104,142xm408,-851v0,65,-53,119,-118,119v-65,0,-118,-54,-118,-119v0,-65,53,-118,118,-118v65,0,118,53,118,118","w":566},"\u00a2":{"d":"-1608,495v21,-248,13,-643,9,-910v-70,35,-127,70,-171,98r-62,-70v100,-34,285,-121,371,-171v-5,140,-8,315,-8,525v0,125,1,237,3,336v2,67,4,113,5,139v1,26,3,43,5,53v-42,-5,-110,-5,-152,0","w":0},"\u00a3":{"d":"524,-674v15,234,-79,428,-203,535r176,0v113,0,214,-2,305,-5v91,-3,147,-8,166,-13v-7,69,-7,104,0,173v-231,-21,-550,-14,-801,-8v-53,1,-87,6,-100,10v7,-57,7,-83,0,-140v249,1,323,-193,302,-461r-3,-90v-64,6,-142,-4,-190,20v8,-53,8,-80,0,-133v45,24,124,13,187,19r-1,-185v-10,-290,238,-490,534,-396v46,15,87,36,124,65v-43,50,-58,78,-80,146v-30,-89,-99,-162,-206,-162v-165,0,-231,162,-213,349r5,185v120,-5,225,8,304,-21v-5,53,-5,80,0,133v-78,-31,-186,-14,-306,-21"},"\u00a4":{"d":"-1540,495v-242,0,-346,-232,-346,-505v0,-164,32,-293,97,-387v65,-94,153,-141,265,-141v243,0,346,231,346,506v0,164,-32,292,-96,386v-64,94,-153,141,-266,141xm-1368,316v62,-133,70,-548,0,-678v-39,-72,-91,-111,-164,-111v-73,0,-124,39,-163,113v-68,130,-66,547,0,680v71,144,258,142,327,-4","w":0},"\u00a5":{"d":"-1805,311r222,-334r-202,-326r-85,-131v-16,-24,-29,-42,-39,-53v49,5,124,5,173,0v58,130,155,267,228,396r205,-324v14,-25,26,-49,36,-72v35,5,87,5,122,0r-136,184r-189,277r319,524v15,24,25,38,29,43v-47,-5,-123,-5,-170,0v-64,-158,-171,-305,-252,-454r-169,270v-49,79,-67,108,-98,184v-35,-5,-87,-5,-122,0","w":0},"\u00a6":{"d":"-510,495v-242,0,-346,-232,-346,-505v0,-164,32,-293,97,-387v65,-94,153,-141,265,-141v243,0,346,231,346,506v0,164,-32,292,-96,386v-64,94,-153,141,-266,141xm-338,316v62,-133,70,-548,0,-678v-39,-72,-91,-111,-164,-111v-73,0,-124,39,-163,113v-68,130,-66,547,0,680v71,144,258,142,327,-4","w":0},"\u00a7":{"d":"257,-1048v0,-203,136,-354,336,-351v132,1,239,43,319,106v-47,66,-66,101,-96,181r-11,1v-26,-113,-100,-197,-227,-199v-122,-2,-213,80,-212,199v0,45,20,85,62,120v42,35,112,71,210,108v114,43,195,91,244,142v112,116,87,342,-27,444v49,53,72,119,72,196v0,231,-184,385,-422,381v-124,-2,-223,-30,-302,-81v22,-85,31,-129,36,-227r11,-1v38,125,143,218,294,220v150,2,274,-86,274,-227v0,-48,-23,-90,-68,-127v-45,-37,-121,-74,-228,-112v-123,-45,-212,-93,-264,-147v-112,-113,-105,-332,29,-424r29,-20v-39,-51,-59,-112,-59,-182xm807,-340v49,-82,53,-193,-25,-260v-80,-68,-342,-144,-422,-222v-95,63,-90,184,-4,258v83,72,362,144,451,224"},"\u00a8":{"d":"268,-1231v0,-53,44,-98,97,-98v53,0,97,45,97,98v0,53,-44,97,-97,97v-53,0,-97,-44,-97,-97xm679,-1231v0,-53,44,-98,97,-98v53,0,97,45,97,98v0,53,-44,97,-97,97v-53,0,-97,-44,-97,-97"},"\u00a9":{"d":"597,-861v53,0,115,-34,138,-67r58,62v-29,44,-122,80,-196,80v-145,0,-263,-127,-263,-274v0,-188,181,-333,374,-253v37,16,65,33,80,54r-58,62v-22,-32,-84,-63,-136,-63v-104,0,-185,94,-185,200v0,107,83,199,188,199xm563,-1529v261,0,478,217,478,478v0,260,-217,477,-478,477v-260,0,-477,-217,-477,-477v0,-261,217,-478,477,-478xm976,-1051v0,-225,-188,-413,-413,-413v-225,0,-412,188,-412,413v0,225,187,412,412,412v225,0,413,-187,413,-412","w":1020},"\u00aa":{"d":"617,-676v-43,2,-73,-47,-84,-86v-49,48,-128,86,-207,86v-126,0,-213,-67,-213,-188v2,-172,195,-182,345,-214v47,-10,62,-22,62,-76v0,-91,-54,-136,-148,-135v-92,1,-146,45,-187,109r-14,-3r8,-129v53,-34,134,-61,213,-62v155,-1,254,73,254,222r0,292v-2,72,11,141,76,115r1,46v-27,15,-63,21,-106,23xm363,-758v66,0,126,-43,157,-87r0,-161v-111,25,-258,29,-260,153v-1,63,39,95,103,95","w":831},"\u00ab":{"d":"313,-841v31,43,50,60,102,80v-49,65,-107,149,-174,251r-17,27r15,24v67,103,125,186,176,250v-54,15,-74,31,-107,71v-46,-96,-160,-270,-227,-347v66,-80,183,-260,232,-356xm610,-841v31,43,50,60,102,80v-49,65,-107,149,-174,251r-17,27r15,24v67,103,125,186,176,250v-54,15,-74,31,-107,71v-46,-96,-160,-270,-227,-347v66,-80,183,-260,232,-356","w":755},"\u00ac":{"d":"1408,-688r-1107,0r0,-109r1216,0r0,614r-109,0r0,-505","w":1813},"\u00ad":{"d":"30,-565r512,0r0,143r-512,0r0,-143","w":566},"\u00ae":{"d":"730,-1166v0,62,-39,116,-89,136r89,223r-91,0r-84,-212r-84,0r0,212r-75,0r0,-506r187,0v81,-2,147,66,147,147xm583,-1094v39,1,72,-33,72,-72v0,-39,-33,-72,-72,-72r-112,0r0,144r112,0xm563,-1524v261,0,478,217,478,478v0,260,-217,477,-478,477v-260,0,-477,-217,-477,-477v0,-261,217,-478,477,-478xm976,-1046v0,-225,-188,-413,-413,-413v-225,0,-412,188,-412,413v0,225,187,412,412,412v225,0,413,-187,413,-412","w":1020},"\u00af":{"d":"0,-1526r0,-105r1020,0r0,105r-1020,0","w":1020},"\u00b0":{"d":"-578,495v21,-248,13,-643,9,-910v-70,35,-127,70,-171,98r-62,-70v100,-34,285,-121,371,-171v-5,140,-8,315,-8,525v0,125,1,237,3,336v2,67,4,113,5,139v1,26,3,43,5,53v-42,-5,-110,-5,-152,0","w":0},"\u00b1":{"d":"850,-446r-474,0r0,-108r474,0r0,-474r108,0r0,474r474,0r0,108r-474,0r0,474r-108,0r0,-474xm376,139r1056,0r0,109r-1056,0r0,-109","w":1813},"\u00b2":{"d":"370,-1371v147,0,266,81,266,220v0,61,-20,116,-53,170v-41,66,-212,225,-309,312r282,-5v54,-3,88,-7,103,-12v-7,54,-7,82,0,137v-156,-29,-434,-19,-588,-5r-10,-15r257,-249v97,-97,162,-175,166,-335v2,-92,-37,-151,-124,-151v-78,0,-124,61,-139,134v-34,-37,-53,-53,-95,-81v41,-67,141,-120,244,-120","w":755},"\u00b3":{"d":"294,-616v116,2,194,-66,194,-180v0,-119,-117,-181,-234,-138v5,-39,5,-57,0,-96v51,20,124,15,154,-21v22,-26,36,-60,36,-106v1,-85,-33,-145,-112,-145v-63,0,-105,39,-122,90v-25,-38,-41,-55,-75,-85v45,-45,124,-74,212,-74v140,0,247,62,249,191v1,84,-48,145,-115,171v86,28,157,103,157,205v0,200,-226,294,-442,244v-37,-8,-66,-18,-87,-31v14,-43,19,-64,25,-112v37,49,85,86,160,87","w":755},"\u00b4":{"d":"869,-1374v-134,103,-202,166,-323,290r-74,0v77,-125,112,-188,174,-324v87,18,131,17,220,0"},"\u00b5":{"d":"458,25v-104,0,-180,-73,-195,-171r-178,483r-210,0r135,-338v124,-337,190,-637,296,-979r200,0r-192,639v-41,134,32,226,157,226v70,0,132,-35,187,-105v129,-166,195,-518,273,-760r190,0v-80,312,-211,603,-221,980r-185,0v1,-58,8,-122,19,-191v-54,104,-167,216,-276,216"},"\u00b6":{"d":"190,-1045v-3,-304,264,-488,587,-481r260,0r0,80r-138,0r0,1772r-80,0r0,-1772r-98,0r0,1772r-80,0r0,-894v-258,-48,-448,-198,-451,-477"},"\u00b7":{"d":"168,-699v0,-65,53,-119,118,-119v65,0,118,54,118,119v0,65,-53,118,-118,118v-65,0,-118,-53,-118,-118","w":566},"\u00b8":{"d":"678,270v0,-78,-113,-88,-176,-63r-27,-29r104,-178r77,0r-68,117v116,-20,214,31,214,138v0,160,-200,215,-357,158v-45,-16,-84,-34,-117,-58r40,-68v47,37,124,70,200,71v61,1,110,-31,110,-88"},"\u00b9":{"d":"326,-565v20,-112,15,-275,15,-408v0,-102,-1,-193,-4,-274v-53,26,-97,50,-132,72r-62,-62v93,-27,264,-97,340,-141v-13,196,-12,528,-3,751v2,22,4,43,8,62v-46,-4,-116,-4,-162,0","w":755},"\u00ba":{"d":"408,-676v-199,0,-339,-143,-339,-343v0,-209,151,-355,361,-355v199,0,339,144,339,345v0,208,-152,353,-361,353xm414,-755v138,0,208,-128,208,-279v0,-150,-56,-261,-192,-261v-140,0,-214,128,-214,281v0,151,60,259,198,259","w":831},"\u00bb":{"d":"-785,311r222,-334r-202,-326r-85,-131v-16,-24,-29,-42,-39,-53v49,5,124,5,173,0v58,130,155,267,228,396r205,-324v14,-25,26,-49,36,-72v35,5,87,5,122,0r-136,184r-189,277r319,524v15,24,25,38,29,43v-47,-5,-123,-5,-170,0v-64,-158,-171,-305,-252,-454r-169,270v-49,79,-67,108,-98,184v-35,-5,-87,-5,-122,0","w":0},"\u2215":{"d":"610,-1371v-3,2,-19,24,-48,66r-418,626r-408,636v-25,38,-38,61,-40,68v-51,-5,-75,-5,-126,0v3,-3,20,-25,48,-66r418,-626r408,-636v25,-39,38,-62,40,-68v51,5,75,5,126,0","w":189},"\u00bc":{"d":"1563,-178v-24,-10,-77,-17,-113,-16v3,66,0,137,12,194v-44,-4,-112,-4,-156,0v10,-70,13,-122,14,-194r-412,0r-10,-15r424,-590v56,8,83,8,139,0v-19,145,-12,339,-13,505v37,1,90,-6,115,-16v-5,53,-5,79,0,132xm1321,-294r0,-377r-117,162v-56,78,-105,150,-147,215r264,0xm406,-565v20,-112,15,-275,15,-408v0,-102,-1,-193,-4,-274v-53,26,-97,50,-132,72r-62,-62v93,-27,264,-97,340,-141v-13,196,-12,528,-3,751v2,22,4,43,8,62v-46,-4,-116,-4,-162,0xm1383,-1371v-3,2,-19,24,-48,66r-418,626r-408,636v-25,38,-38,61,-40,68v-51,-5,-75,-5,-126,0v3,-3,20,-25,48,-66r418,-626r408,-636v25,-39,38,-62,40,-68v51,5,75,5,126,0","w":1813},"\u00bd":{"d":"1281,-822v147,0,266,81,266,220v0,61,-20,116,-53,170v-41,66,-212,225,-309,312r281,-6v54,-3,89,-6,104,-11v-7,54,-7,82,0,137v-156,-29,-434,-19,-588,-5r-10,-15r257,-249v97,-97,162,-175,166,-335v2,-92,-37,-151,-124,-151v-78,0,-124,61,-139,134v-34,-37,-53,-53,-95,-81v41,-67,141,-120,244,-120xm338,-565v20,-112,15,-275,15,-408v0,-102,-1,-193,-4,-274v-53,26,-97,50,-132,72r-62,-62v93,-27,264,-97,340,-141v-13,196,-12,528,-3,751v2,22,4,43,8,62v-46,-4,-116,-4,-162,0xm1323,-1371v-3,2,-19,24,-48,66r-418,626r-408,636v-25,38,-38,61,-40,68v-51,-5,-75,-5,-126,0v3,-3,20,-25,48,-66r418,-626r408,-636v25,-39,38,-62,40,-68v51,5,75,5,126,0","w":1813},"\u00be":{"d":"1641,-178v-24,-10,-77,-17,-113,-16v3,66,0,137,12,194v-44,-4,-112,-4,-156,0v10,-70,13,-122,14,-194r-412,0r-10,-15r424,-590v56,8,83,8,139,0v-19,145,-12,339,-13,505v37,1,90,-6,115,-16v-5,53,-5,79,0,132xm1399,-294r0,-377r-117,162v-56,78,-105,150,-147,215r264,0xm423,-616v116,2,194,-66,194,-180v0,-119,-117,-181,-234,-138v5,-39,5,-57,0,-96v51,20,124,15,154,-21v22,-26,36,-60,36,-106v1,-85,-33,-145,-112,-145v-63,0,-105,39,-122,90v-25,-38,-41,-55,-75,-85v45,-45,124,-74,212,-74v140,0,247,62,249,191v1,84,-48,145,-115,171v86,28,157,103,157,205v0,200,-227,294,-443,244v-37,-8,-65,-18,-86,-31v14,-43,19,-64,25,-112v37,49,85,86,160,87xm1496,-1371v-3,2,-19,24,-48,66r-418,626r-408,636v-25,38,-38,61,-40,68v-51,-5,-75,-5,-126,0v3,-3,20,-25,48,-66r418,-626r408,-636v25,-39,38,-62,40,-68v51,5,75,5,126,0","w":1813},"\u00bf":{"d":"298,80v-86,115,3,263,138,258v69,-2,141,-50,177,-94r17,111v-59,33,-136,62,-214,64v-165,3,-298,-101,-293,-260v6,-175,81,-246,192,-365v52,-56,88,-100,111,-132v57,-78,34,-199,-69,-198v-36,0,-69,13,-90,31r44,-111v158,-25,291,68,287,214v-5,152,-67,213,-159,316v-69,77,-116,132,-141,166xm530,-845v0,65,-53,119,-118,119v-65,0,-118,-54,-118,-119v0,-65,53,-118,118,-118v65,0,118,53,118,118","w":793},"\u00c0":{"d":"725,-1514v-67,-64,-128,-117,-179,-162v-38,-33,-81,-69,-131,-108r3,-54v95,19,142,21,235,0v59,135,92,199,167,324r-95,0xm361,-693v129,-278,227,-515,302,-706r49,0v75,189,174,424,296,704r199,448r119,252v-64,-7,-162,-7,-225,0v-45,-178,-137,-355,-203,-526v-147,-18,-370,-30,-512,0v-43,97,-80,189,-114,274v-43,108,-60,147,-85,252v-46,-7,-117,-7,-163,0v120,-217,230,-467,337,-698xm442,-653v119,19,280,13,399,-2r-197,-455","w":1360},"\u00c1":{"d":"590,-1514v76,-124,111,-188,170,-324v92,21,140,19,235,0r2,53v-116,91,-198,157,-312,271r-95,0xm361,-693v129,-278,227,-515,302,-706r49,0v75,189,174,424,296,704r199,448r119,252v-64,-7,-162,-7,-225,0v-45,-178,-137,-355,-203,-526v-147,-18,-370,-30,-512,0v-43,97,-80,189,-114,274v-43,108,-60,147,-85,252v-46,-7,-117,-7,-163,0v120,-217,230,-467,337,-698xm442,-653v119,19,280,13,399,-2r-197,-455","w":1360},"\u00c2":{"d":"1021,-1594v-70,27,-101,45,-159,86v-42,-75,-119,-158,-175,-226r-145,174v-19,25,-31,42,-34,50v-57,-40,-87,-57,-155,-84v96,-61,205,-174,276,-244r116,0v69,73,179,182,276,244xm361,-693v129,-278,227,-515,302,-706r49,0v75,189,174,424,296,704r199,448r119,252v-64,-7,-162,-7,-225,0v-45,-178,-137,-355,-203,-526v-147,-18,-370,-30,-512,0v-43,97,-80,189,-114,274v-43,108,-60,147,-85,252v-46,-7,-117,-7,-163,0v120,-217,230,-467,337,-698xm442,-653v119,19,280,13,399,-2r-197,-455","w":1360},"\u00c3":{"d":"534,-1633v-57,0,-73,23,-105,62r-57,-9v19,-89,85,-200,173,-200v92,0,201,59,295,59v57,0,74,-21,105,-57r57,9v-7,96,-80,198,-173,198v-96,0,-201,-62,-295,-62xm361,-693v129,-278,227,-515,302,-706r49,0v75,189,174,424,296,704r199,448r119,252v-64,-7,-162,-7,-225,0v-45,-178,-137,-355,-203,-526v-147,-18,-370,-30,-512,0v-43,97,-80,189,-114,274v-43,108,-60,147,-85,252v-46,-7,-117,-7,-163,0v120,-217,230,-467,337,-698xm442,-653v119,19,280,13,399,-2r-197,-455","w":1360},"\u00c4":{"d":"368,-1668v0,-56,46,-102,101,-102v55,0,101,47,101,102v0,55,-47,101,-101,101v-55,0,-101,-47,-101,-101xm803,-1668v0,-56,46,-102,101,-102v55,0,101,47,101,102v0,55,-47,101,-101,101v-55,0,-101,-47,-101,-101xm361,-693v129,-278,227,-515,302,-706r49,0v75,189,174,424,296,704r199,448r119,252v-64,-7,-162,-7,-225,0v-45,-178,-137,-355,-203,-526v-147,-18,-370,-30,-512,0v-43,97,-80,189,-114,274v-43,108,-60,147,-85,252v-46,-7,-117,-7,-163,0v120,-217,230,-467,337,-698xm442,-653v119,19,280,13,399,-2r-197,-455","w":1360},"\u00c5":{"d":"-1179,-1677v34,-41,49,-65,68,-119v97,83,152,124,256,188v-6,-119,-13,-198,-36,-316v55,11,83,11,137,0v-22,123,-33,187,-35,317v95,-62,162,-107,255,-188v19,55,33,78,68,119v-123,44,-188,70,-292,126r116,55v48,21,106,44,175,68v-34,41,-49,65,-68,119v-93,-81,-159,-127,-255,-188v2,129,13,193,35,316v-55,-11,-83,-11,-137,0v22,-122,33,-188,35,-317v-95,62,-162,107,-255,188v-19,-55,-33,-78,-68,-119v123,-44,188,-70,292,-126r-116,-55v-48,-21,-106,-44,-175,-68","w":0},"\u00c6":{"d":"1565,22v-222,-24,-504,-23,-746,-17v16,-132,13,-367,16,-535v-135,-15,-336,-13,-461,7r-149,276v-56,108,-78,147,-112,252v-48,-7,-120,-7,-168,0r152,-252r264,-450r376,-653v19,-34,31,-55,35,-65v197,24,452,19,665,12v49,-2,91,-7,128,-13v-8,39,-8,100,0,139v-148,-23,-375,-19,-548,-18v-4,148,-6,320,-7,516r188,-1v91,0,249,-5,315,-17v-8,37,-8,97,0,134v-130,-20,-346,-17,-502,-18v-1,223,1,416,6,579v167,10,402,5,548,-17v-8,40,-8,101,0,141xm481,-713r-36,63v115,14,277,11,390,-2r1,-47v0,-225,-2,-421,-6,-586v-105,159,-222,349,-349,572","w":1662},"\u00c7":{"d":"-347,-534v137,0,170,102,215,234r46,-214r128,0r-78,349v-15,66,-25,107,-30,122v20,92,49,138,87,138v45,0,69,-31,70,-93r27,0v-1,94,-32,195,-110,195v-27,0,-47,-11,-60,-33v-13,-22,-26,-65,-41,-132v-53,110,-138,165,-256,165v-182,0,-264,-159,-264,-365v0,-200,97,-366,266,-366xm-152,-219v-24,-81,-51,-144,-80,-189v-29,-45,-63,-68,-104,-68v-91,0,-137,107,-137,322v0,203,44,305,131,305v77,0,133,-90,170,-269xm-1323,-283v0,-121,37,-238,145,-241v42,0,73,15,94,46v41,58,74,229,99,328r184,-364r132,0r-274,539v29,104,49,284,107,342v20,20,49,28,80,28v73,0,112,-43,117,-128r28,0v-1,127,-46,241,-157,241v-118,0,-135,-73,-165,-198r-50,-209r-201,404r-131,0r291,-579v-24,-93,-51,-248,-89,-308v-15,-23,-40,-35,-73,-35v-59,0,-95,45,-109,134r-28,0","w":0},"\u00c8":{"d":"-169,446v-57,72,-186,60,-255,-7v-130,-126,-20,-338,17,-479v24,-93,45,-169,49,-232v10,-172,-216,-215,-316,-100v-52,60,-45,166,-22,234v10,29,20,66,-9,80v-13,6,-35,11,-66,13v-54,-34,-85,-165,-59,-271v33,-136,153,-221,351,-202v243,24,262,243,189,470v-43,131,-70,217,-74,342v-2,63,58,135,107,143v42,7,51,-5,83,-19","w":0},"\u00c9":{"d":"386,-1514v76,-124,111,-188,170,-324v92,21,140,19,235,0r2,53v-116,91,-198,157,-312,271r-95,0xm147,16v28,-384,20,-959,7,-1360v-2,-34,-4,-58,-7,-71v210,24,529,24,739,-2v-8,39,-8,100,0,139v-142,-24,-377,-22,-542,-16r-6,514r181,-1v91,0,249,-5,315,-17v-8,38,-8,98,0,137v-128,-19,-341,-17,-495,-18v-1,221,1,412,6,575r205,2v96,1,265,-8,336,-21v-8,40,-8,101,0,141v-213,-24,-525,-26,-739,-2","w":1020},"\u00ca":{"d":"817,-1594v-70,27,-101,45,-159,86v-42,-75,-119,-158,-175,-226r-145,174v-19,25,-31,42,-34,50v-57,-40,-87,-57,-155,-84v96,-61,205,-174,276,-244r116,0v69,73,179,182,276,244xm147,16v28,-384,20,-959,7,-1360v-2,-34,-4,-58,-7,-71v210,24,529,24,739,-2v-8,39,-8,100,0,139v-142,-24,-377,-22,-542,-16r-6,514r181,-1v91,0,249,-5,315,-17v-8,38,-8,98,0,137v-128,-19,-341,-17,-495,-18v-1,221,1,412,6,575r205,2v96,1,265,-8,336,-21v-8,40,-8,101,0,141v-213,-24,-525,-26,-739,-2","w":1020},"\u00cb":{"d":"164,-1668v0,-56,46,-102,101,-102v55,0,101,47,101,102v0,55,-47,101,-101,101v-55,0,-101,-47,-101,-101xm599,-1668v0,-56,46,-102,101,-102v55,0,101,47,101,102v0,55,-47,101,-101,101v-55,0,-101,-47,-101,-101xm147,16v28,-384,20,-959,7,-1360v-2,-34,-4,-58,-7,-71v210,24,529,24,739,-2v-8,39,-8,100,0,139v-142,-24,-377,-22,-542,-16r-6,514r181,-1v91,0,249,-5,315,-17v-8,38,-8,98,0,137v-128,-19,-341,-17,-495,-18v-1,221,1,412,6,575r205,2v96,1,265,-8,336,-21v-8,40,-8,101,0,141v-213,-24,-525,-26,-739,-2","w":1020},"\u00cc":{"d":"0,512r0,-105r400,0r0,105r-400,0","w":400},"\u00cd":{"d":"172,-1514v76,-124,111,-188,170,-324v92,21,140,19,235,0r2,53v-116,91,-198,157,-312,271r-95,0xm179,5v28,-378,20,-944,7,-1339v-2,-34,-4,-57,-7,-70v59,7,149,7,208,0v-27,378,-20,943,-7,1338v2,34,4,58,7,71v-59,-7,-149,-7,-208,0","w":566},"\u00ce":{"d":"626,-1594v-70,27,-101,45,-159,86v-42,-75,-119,-158,-175,-226r-145,174v-19,25,-31,42,-34,50v-57,-40,-87,-57,-155,-84v96,-61,205,-174,276,-244r116,0v69,73,179,182,276,244xm188,5v28,-378,20,-944,7,-1339v-2,-34,-4,-57,-7,-70v59,7,149,7,208,0v-27,378,-20,943,-7,1338v2,34,4,58,7,71v-59,-7,-149,-7,-208,0","w":566},"\u00cf":{"d":"-18,-1668v0,-56,46,-102,101,-102v55,0,101,47,101,102v0,55,-47,101,-101,101v-55,0,-101,-47,-101,-101xm417,-1668v0,-56,46,-102,101,-102v55,0,101,47,101,102v0,55,-47,101,-101,101v-55,0,-101,-47,-101,-101xm169,5v28,-378,20,-944,7,-1339v-2,-34,-4,-57,-7,-70v59,7,149,7,208,0v-27,378,-20,943,-7,1338v2,34,4,58,7,71v-59,-7,-149,-7,-208,0","w":566},"\u00d0":{"d":"1497,-744v0,473,-323,755,-808,749r-374,-5r-104,5v19,-175,13,-460,17,-668r-165,0r0,-99r165,0r-4,-390v-3,-87,-4,-148,-6,-182v-2,-34,-4,-57,-7,-70v191,11,395,0,592,0v435,0,694,232,694,660xm1287,-760v-1,-359,-209,-541,-576,-539v-116,0,-216,3,-301,9v-5,153,-8,329,-8,528r159,0r0,99r-159,0r6,552v85,9,185,12,299,11v395,-2,581,-249,580,-660","w":1586},"\u00d1":{"d":"644,-1633v-57,0,-73,23,-105,62r-57,-9v19,-89,85,-200,173,-200v92,0,201,59,295,59v57,0,74,-21,105,-57r57,9v-7,96,-80,198,-173,198v-96,0,-201,-62,-295,-62xm1393,-1404v-30,386,-16,1055,-7,1432r-56,0r-668,-724r-339,-353r0,349v1,168,3,319,7,453v3,85,5,145,7,179v2,34,4,58,7,73v-40,-7,-102,-7,-142,0v27,-377,19,-939,6,-1333v-2,-34,-3,-58,-6,-71r60,0r668,724r337,350r1,-360v0,-173,-1,-328,-4,-467v-2,-88,-4,-148,-6,-182v-2,-34,-4,-57,-7,-70v40,7,102,7,142,0","w":1586},"\u00d2":{"d":"-1273,-539v137,0,170,102,215,234r46,-214r128,0r-78,349v-15,66,-25,107,-30,122v20,92,49,138,87,138v45,0,69,-31,70,-93r27,0v-1,94,-32,195,-110,195v-27,0,-47,-10,-60,-32v-13,-22,-26,-66,-41,-133v-53,110,-138,165,-256,165v-182,0,-264,-159,-264,-365v0,-200,97,-366,266,-366xm-1078,-224v-24,-81,-51,-144,-80,-189v-29,-45,-63,-68,-104,-68v-91,0,-137,107,-137,322v0,203,44,305,131,305v77,0,133,-90,170,-269xm-2249,-288v0,-121,37,-238,145,-241v42,0,73,15,94,46v41,58,74,229,99,328r184,-364r132,0r-274,539v29,104,49,284,107,342v20,20,49,28,80,28v73,0,112,-43,117,-128r28,0v-1,127,-46,241,-157,241v-118,0,-135,-73,-165,-198r-50,-209r-201,404r-131,0r291,-579v-24,-93,-51,-249,-89,-309v-15,-23,-40,-34,-73,-34v-59,0,-95,45,-109,134r-28,0","w":0},"\u00d3":{"d":"-1195,446v-57,72,-186,60,-255,-7v-130,-126,-20,-338,17,-479v24,-93,45,-169,49,-232v10,-172,-216,-215,-316,-100v-52,60,-45,166,-22,234v10,29,20,66,-9,80v-13,6,-35,11,-66,13v-54,-34,-85,-165,-59,-271v33,-136,153,-221,351,-202v243,24,262,243,189,470v-43,131,-70,217,-74,342v-2,63,58,135,107,143v42,7,51,-5,83,-19","w":0},"\u00d4":{"d":"-1027,-535v137,0,170,102,215,234r46,-214r128,0r-78,349v-15,66,-25,107,-30,122v20,92,49,138,87,138v45,0,69,-31,70,-93r27,0v-1,94,-32,195,-110,195v-27,0,-47,-10,-60,-32v-13,-22,-26,-66,-41,-133v-53,110,-138,165,-256,165v-182,0,-264,-159,-264,-365v0,-200,97,-366,266,-366xm-832,-220v-24,-81,-51,-144,-80,-189v-29,-45,-63,-68,-104,-68v-91,0,-137,107,-137,322v0,203,44,305,131,305v77,0,133,-90,170,-269xm-2003,-284v0,-121,37,-238,145,-241v42,0,73,15,94,46v41,58,74,229,99,328r184,-364r132,0r-274,539v29,104,49,284,107,342v20,20,49,28,80,28v73,0,112,-43,117,-128r28,0v-1,127,-46,241,-157,241v-118,0,-135,-73,-165,-198r-50,-209r-201,404r-131,0r291,-579v-24,-93,-51,-249,-89,-309v-15,-23,-40,-34,-73,-34v-59,0,-95,45,-109,134r-28,0","w":0},"\u00d5":{"d":"-766,441v-57,72,-187,60,-256,-7v-130,-126,-19,-339,18,-480v24,-93,45,-168,49,-231v10,-172,-216,-215,-316,-100v-52,60,-46,166,-23,234v10,29,21,67,-8,81v-13,6,-35,10,-66,12v-54,-34,-85,-165,-59,-271v33,-136,153,-221,351,-202v243,24,262,244,189,471v-43,131,-71,217,-75,342v-2,63,59,134,108,142v42,7,51,-5,83,-19","w":0},"\u00d6":{"d":"533,-1668v0,-56,46,-102,101,-102v55,0,101,47,101,102v0,55,-47,101,-101,101v-55,0,-101,-47,-101,-101xm968,-1668v0,-56,46,-102,101,-102v55,0,101,47,101,102v0,55,-47,101,-101,101v-55,0,-101,-47,-101,-101xm841,28v-428,0,-748,-283,-748,-703v0,-443,324,-752,770,-752v430,0,749,283,749,704v0,444,-324,751,-771,751xm852,-61v350,0,550,-286,550,-655v0,-358,-206,-622,-550,-622v-348,0,-549,288,-549,656v0,356,207,621,549,621","w":1699},"\u00d7":{"d":"906,-424r-453,454r-77,-77r454,-453r-454,-453r77,-77r453,454r453,-454r77,77r-454,453r454,453r-77,77","w":1813},"\u00d8":{"d":"846,-61v350,0,550,-286,550,-655v0,-138,-27,-256,-80,-353r-470,423r-418,393v95,122,242,192,418,192xm1606,-723v0,444,-324,751,-771,751v-210,0,-383,-58,-518,-174r-145,146v-30,-42,-48,-60,-91,-89r159,-135v-102,-121,-153,-271,-153,-451v0,-443,324,-752,770,-752v206,0,376,55,510,166r153,-152v31,42,48,59,91,89r-165,141v107,123,160,276,160,460xm1258,-1154v-95,-119,-239,-184,-412,-184v-348,0,-549,288,-549,656v0,133,25,248,75,344r474,-429","w":1699},"\u00d9":{"d":"877,-1514v-67,-64,-128,-117,-179,-162v-38,-33,-81,-69,-131,-108r3,-54v95,19,142,21,235,0v59,135,92,199,167,324r-95,0xm1408,-1404v-30,226,-24,513,-24,794v0,405,-192,638,-586,638v-390,0,-573,-180,-574,-568r-2,-612v-1,-83,-3,-140,-4,-174v-1,-34,-4,-60,-7,-78v59,7,149,7,208,0v-27,225,-21,521,-21,801v0,334,117,524,433,524v349,0,443,-227,441,-606r-2,-467v-1,-85,-3,-144,-4,-178v-1,-34,-3,-59,-6,-74v43,7,105,7,148,0","w":1586},"\u00da":{"d":"742,-1514v76,-124,111,-188,170,-324v92,21,140,19,235,0r2,53v-116,91,-198,157,-312,271r-95,0xm1408,-1404v-30,226,-24,513,-24,794v0,405,-192,638,-586,638v-390,0,-573,-180,-574,-568r-2,-612v-1,-83,-3,-140,-4,-174v-1,-34,-4,-60,-7,-78v59,7,149,7,208,0v-27,225,-21,521,-21,801v0,334,117,524,433,524v349,0,443,-227,441,-606r-2,-467v-1,-85,-3,-144,-4,-178v-1,-34,-3,-59,-6,-74v43,7,105,7,148,0","w":1586},"\u00db":{"d":"1173,-1594v-70,27,-101,45,-159,86v-42,-75,-119,-158,-175,-226r-145,174v-19,25,-31,42,-34,50v-57,-40,-87,-57,-155,-84v96,-61,205,-174,276,-244r116,0v69,73,179,182,276,244xm1408,-1404v-30,226,-24,513,-24,794v0,405,-192,638,-586,638v-390,0,-573,-180,-574,-568r-2,-612v-1,-83,-3,-140,-4,-174v-1,-34,-4,-60,-7,-78v59,7,149,7,208,0v-27,225,-21,521,-21,801v0,334,117,524,433,524v349,0,443,-227,441,-606r-2,-467v-1,-85,-3,-144,-4,-178v-1,-34,-3,-59,-6,-74v43,7,105,7,148,0","w":1586},"\u00dc":{"d":"520,-1668v0,-56,46,-102,101,-102v55,0,101,47,101,102v0,55,-47,101,-101,101v-55,0,-101,-47,-101,-101xm955,-1668v0,-56,46,-102,101,-102v55,0,101,47,101,102v0,55,-47,101,-101,101v-55,0,-101,-47,-101,-101xm1408,-1404v-30,226,-24,513,-24,794v0,405,-192,638,-586,638v-390,0,-573,-180,-574,-568r-2,-612v-1,-83,-3,-140,-4,-174v-1,-34,-4,-60,-7,-78v59,7,149,7,208,0v-27,225,-21,521,-21,801v0,334,117,524,433,524v349,0,443,-227,441,-606r-2,-467v-1,-85,-3,-144,-4,-178v-1,-34,-3,-59,-6,-74v43,7,105,7,148,0","w":1586},"\u00dd":{"d":"524,-1514v76,-124,111,-188,170,-324v92,21,140,19,235,0r2,53v-116,91,-198,157,-312,271r-95,0xm529,5v22,-166,14,-333,16,-578r-221,-375r-249,-394v-22,-34,-36,-55,-43,-62v71,7,182,7,252,0v45,136,127,259,198,390v65,120,126,221,179,306r0,0v51,-81,106,-177,167,-288r86,-156v59,-104,80,-144,118,-252v51,7,128,7,179,0v-49,65,-118,176,-165,252r-118,189r-207,348r3,453v2,67,6,122,13,167v-59,-7,-149,-7,-208,0","w":1246},"\u00de":{"d":"-1178,495v21,-248,13,-643,9,-910v-70,35,-127,70,-171,98r-62,-70v100,-34,285,-121,371,-171v-5,140,-8,315,-8,525v0,125,1,237,3,336v2,67,4,113,5,139v1,26,3,43,5,53v-42,-5,-110,-5,-152,0","w":0},"\u00df":{"d":"565,-1458v-298,0,-229,401,-229,692v0,225,1,424,5,595v2,86,2,118,12,176v-54,-7,-137,-7,-191,0v27,-306,16,-717,16,-1082v0,-281,140,-454,413,-454v156,0,285,87,285,233v0,164,-150,253,-210,364v-33,62,-33,112,16,163v26,28,73,63,138,107v121,82,214,153,220,311v8,228,-235,446,-481,358v-35,-13,-66,-31,-91,-52v21,-53,30,-80,45,-138v38,61,99,112,184,116v165,8,260,-195,159,-328v-59,-77,-268,-206,-314,-272v-49,-70,-63,-146,-17,-225v37,-64,145,-157,180,-254v18,-49,30,-93,30,-134v2,-102,-69,-176,-170,-176"},"\u00e0":{"d":"-1110,495v-242,0,-346,-232,-346,-505v0,-164,32,-293,97,-387v65,-94,153,-141,265,-141v243,0,346,231,346,506v0,164,-32,292,-96,386v-64,94,-153,141,-266,141xm-938,316v62,-133,70,-548,0,-678v-39,-72,-91,-111,-164,-111v-73,0,-124,39,-163,113v-68,130,-66,547,0,680v71,144,258,142,327,-4","w":0},"\u00e1":{"d":"-1385,311r222,-334r-202,-326r-85,-131v-16,-24,-29,-42,-39,-53v49,5,124,5,173,0v58,130,155,267,228,396r205,-324v14,-25,26,-49,36,-72v35,5,87,5,122,0r-136,184r-189,277r319,524v15,24,25,38,29,43v-47,-5,-123,-5,-170,0v-64,-158,-171,-305,-252,-454r-169,270v-49,79,-67,108,-98,184v-35,-5,-87,-5,-122,0","w":0},"\u00e2":{"d":"767,-1126v-51,20,-75,33,-118,62v-43,-78,-116,-153,-170,-224r-147,185v-14,19,-22,31,-25,38v-44,-28,-65,-41,-116,-61v77,-66,174,-191,230,-266r116,0v50,74,143,181,213,252v8,7,13,12,17,14xm682,-108v-70,73,-201,133,-323,133v-162,0,-288,-105,-285,-263v3,-167,122,-243,281,-274r253,-49v62,-12,76,-33,76,-105v0,-163,-79,-255,-238,-255v-136,1,-217,59,-261,159r-23,0r-1,-116v72,-62,194,-115,315,-116v224,-2,363,111,363,328r0,519v-4,71,32,114,98,95r11,45v-38,22,-87,32,-147,32v-72,0,-107,-62,-119,-133xm441,-85v111,0,196,-50,243,-119r0,-295v-180,38,-420,41,-424,241v-2,112,68,173,181,173","w":982},"\u00e3":{"d":"337,-1189v-52,0,-67,17,-95,50r-53,0v17,-84,77,-185,160,-188v114,-4,291,102,367,2r53,0v-16,83,-78,186,-160,186v-87,0,-185,-50,-272,-50xm682,-108v-70,73,-201,133,-323,133v-162,0,-288,-105,-285,-263v3,-167,122,-243,281,-274r253,-49v62,-12,76,-33,76,-105v0,-163,-79,-255,-238,-255v-136,1,-217,59,-261,159r-23,0r-1,-116v72,-62,194,-115,315,-116v224,-2,363,111,363,328r0,519v-4,71,32,114,98,95r11,45v-38,22,-87,32,-147,32v-72,0,-107,-62,-119,-133xm441,-85v111,0,196,-50,243,-119r0,-295v-180,38,-420,41,-424,241v-2,112,68,173,181,173","w":982},"\u00e4":{"d":"176,-1231v0,-53,44,-98,97,-98v53,0,97,45,97,98v0,53,-44,97,-97,97v-53,0,-97,-44,-97,-97xm587,-1231v0,-53,44,-98,97,-98v53,0,97,45,97,98v0,53,-44,97,-97,97v-53,0,-97,-44,-97,-97xm682,-108v-70,73,-201,133,-323,133v-162,0,-288,-105,-285,-263v3,-167,122,-243,281,-274r253,-49v62,-12,76,-33,76,-105v0,-163,-79,-255,-238,-255v-136,1,-217,59,-261,159r-23,0r-1,-116v72,-62,194,-115,315,-116v224,-2,363,111,363,328r0,519v-4,71,32,114,98,95r11,45v-38,22,-87,32,-147,32v-72,0,-107,-62,-119,-133xm441,-85v111,0,196,-50,243,-119r0,-295v-180,38,-420,41,-424,241v-2,112,68,173,181,173","w":982},"\u00e5":{"d":"479,-1083v-86,0,-157,-71,-157,-157v0,-86,71,-157,157,-157v86,0,157,71,157,157v0,86,-71,157,-157,157xm479,-1166v41,0,75,-33,75,-74v0,-41,-34,-74,-75,-74v-41,0,-75,33,-75,74v0,41,34,74,75,74xm682,-108v-70,73,-201,133,-323,133v-162,0,-288,-105,-285,-263v3,-167,122,-243,281,-274r253,-49v62,-12,76,-33,76,-105v0,-163,-79,-255,-238,-255v-136,1,-217,59,-261,159r-23,0r-1,-116v72,-62,194,-115,315,-116v224,-2,363,111,363,328r0,519v-4,71,32,114,98,95r11,45v-38,22,-87,32,-147,32v-72,0,-107,-62,-119,-133xm441,-85v111,0,196,-50,243,-119r0,-295v-180,38,-420,41,-424,241v-2,112,68,173,181,173","w":982},"\u00e6":{"d":"167,-878v71,-61,191,-115,309,-116v146,-1,252,48,308,140v86,-94,195,-140,329,-140v307,0,443,205,421,529v-191,-24,-462,-16,-683,-17v-10,256,89,434,323,434v148,0,253,-62,324,-152r18,23v-9,35,-14,51,-18,90v-97,69,-219,111,-376,112v-155,1,-280,-55,-360,-155v-95,73,-273,155,-401,155v-162,0,-285,-112,-280,-272v7,-245,303,-278,534,-315v60,-10,58,-50,61,-104v7,-142,-85,-216,-231,-215v-128,0,-208,40,-253,124r-24,0xm267,-268v0,118,75,180,197,180v77,0,190,-63,246,-115v-32,-88,-48,-185,-49,-292v-115,19,-260,50,-323,99v-46,36,-71,77,-71,128xm1114,-921v-173,0,-243,162,-258,352r492,0v11,-191,-68,-352,-234,-352","w":1586},"\u00e7":{"d":"602,270v0,-78,-113,-88,-176,-63r-27,-29r104,-178r77,0r-68,117v116,-20,214,31,214,138v0,160,-200,215,-357,158v-45,-16,-84,-34,-117,-58r40,-68v47,37,124,70,200,71v61,1,110,-31,110,-88xm631,-48v123,-2,206,-58,272,-133r18,23r-18,90v-80,58,-186,91,-319,93v-294,4,-504,-208,-504,-501v0,-362,305,-594,686,-496v60,15,117,34,172,61v-20,57,-29,88,-42,151r-29,0v-46,-92,-139,-161,-268,-161v-221,0,-333,209,-333,453v0,225,150,423,365,420","w":982},"\u00e8":{"d":"596,-1084v-65,-64,-121,-118,-170,-162v-42,-38,-92,-81,-151,-128r4,-34v88,17,130,18,217,0v59,136,94,200,171,324r-71,0xm589,-48v149,0,248,-64,328,-152r18,23v-9,35,-14,51,-18,90v-97,69,-219,110,-376,112v-280,3,-466,-216,-466,-502v0,-291,177,-517,457,-517v307,0,443,205,421,529v-195,-24,-471,-16,-696,-17v-11,259,95,434,332,434xm527,-921v-177,0,-248,160,-265,352r505,0v12,-193,-71,-352,-240,-352","w":1020},"\u00e9":{"d":"824,-1374v-134,104,-202,165,-323,290r-74,0v78,-124,113,-188,174,-324v88,18,131,17,220,0xm589,-48v149,0,248,-64,328,-152r18,23v-9,35,-14,51,-18,90v-97,69,-219,110,-376,112v-280,3,-466,-216,-466,-502v0,-291,177,-517,457,-517v307,0,443,205,421,529v-195,-24,-471,-16,-696,-17v-11,259,95,434,332,434xm527,-921v-177,0,-248,160,-265,352r505,0v12,-193,-71,-352,-240,-352","w":1020},"\u00ea":{"d":"820,-1126v-51,20,-75,33,-118,62v-43,-78,-116,-153,-170,-224r-148,185v-14,19,-21,31,-24,38v-44,-28,-65,-41,-116,-61v77,-66,174,-191,230,-266r116,0v50,74,142,181,212,252v8,7,14,12,18,14xm589,-48v149,0,248,-64,328,-152r18,23v-9,35,-14,51,-18,90v-97,69,-219,110,-376,112v-280,3,-466,-216,-466,-502v0,-291,177,-517,457,-517v307,0,443,205,421,529v-195,-24,-471,-16,-696,-17v-11,259,95,434,332,434xm527,-921v-177,0,-248,160,-265,352r505,0v12,-193,-71,-352,-240,-352","w":1020},"\u00eb":{"d":"229,-1231v0,-53,44,-98,97,-98v53,0,97,45,97,98v0,53,-44,97,-97,97v-53,0,-97,-44,-97,-97xm640,-1231v0,-53,44,-98,97,-98v53,0,97,45,97,98v0,53,-44,97,-97,97v-53,0,-97,-44,-97,-97xm589,-48v149,0,248,-64,328,-152r18,23v-9,35,-14,51,-18,90v-97,69,-219,110,-376,112v-280,3,-466,-216,-466,-502v0,-291,177,-517,457,-517v307,0,443,205,421,529v-195,-24,-471,-16,-696,-17v-11,259,95,434,332,434xm527,-921v-177,0,-248,160,-265,352r505,0v12,-193,-71,-352,-240,-352","w":1020},"\u0131":{"d":"189,5v28,-255,19,-643,8,-918v-1,-23,-5,-44,-8,-61v54,9,137,9,191,0v-26,130,-17,330,-17,487v0,118,1,223,4,316v1,53,3,92,5,115v2,23,5,44,8,61v-54,-7,-137,-7,-191,0","w":566},"\u00ec":{"d":"331,-1084v-65,-64,-121,-118,-170,-162v-42,-38,-92,-81,-151,-128r4,-34v88,17,130,18,217,0v59,136,94,200,171,324r-71,0xm172,5v28,-255,19,-643,8,-918v-1,-23,-5,-44,-8,-61v54,9,137,9,191,0v-26,130,-17,330,-17,487v0,118,1,223,4,316v1,53,3,92,5,115v2,23,5,44,8,61v-54,-7,-137,-7,-191,0","w":566},"\u00ed":{"d":"585,-1374v-134,104,-202,165,-323,290r-74,0v78,-124,113,-188,174,-324v88,18,131,17,220,0xm198,5v28,-255,19,-643,8,-918v-1,-23,-5,-44,-8,-61v54,9,137,9,191,0v-26,130,-17,330,-17,487v0,118,1,223,4,316v1,53,3,92,5,115v2,23,5,44,8,61v-54,-7,-137,-7,-191,0","w":566},"\u00ee":{"d":"576,-1126v-51,20,-75,33,-118,62v-43,-78,-116,-153,-170,-224r-148,185v-14,19,-21,31,-24,38v-44,-28,-65,-41,-116,-61v77,-66,174,-191,230,-266r116,0v50,74,142,181,212,252v8,7,14,12,18,14xm193,5v28,-255,19,-643,8,-918v-1,-23,-5,-44,-8,-61v54,9,137,9,191,0v-26,130,-17,330,-17,487v0,118,1,223,4,316v1,53,3,92,5,115v2,23,5,44,8,61v-54,-7,-137,-7,-191,0","w":566},"\u00ef":{"d":"-15,-1231v0,-53,44,-98,97,-98v53,0,97,45,97,98v0,53,-44,97,-97,97v-53,0,-97,-44,-97,-97xm396,-1231v0,-53,44,-98,97,-98v53,0,97,45,97,98v0,53,-44,97,-97,97v-53,0,-97,-44,-97,-97xm193,5v28,-255,19,-643,8,-918v-1,-23,-5,-44,-8,-61v54,9,137,9,191,0v-26,130,-17,330,-17,487v0,118,1,223,4,316v1,53,3,92,5,115v2,23,5,44,8,61v-54,-7,-137,-7,-191,0","w":566},"\u00f0":{"d":"1060,-501v0,330,-180,526,-506,526v-282,0,-473,-212,-473,-499v0,-348,283,-587,647,-499v-46,-83,-101,-165,-166,-248r-176,105r-60,-75r175,-105v-43,-53,-90,-105,-142,-158r103,-63v57,49,111,98,160,149r172,-103r60,75r-164,98v177,193,370,502,370,797xm570,-918v-207,0,-303,213,-303,450v0,240,87,420,303,420v208,0,304,-212,304,-448v0,-242,-86,-422,-304,-422"},"\u00f1":{"d":"421,-1189v-52,0,-67,17,-95,50r-53,0v17,-84,77,-185,160,-188v114,-4,291,102,367,2r53,0v-16,83,-78,186,-160,186v-87,0,-185,-50,-272,-50xm148,5v28,-257,19,-653,6,-927v-2,-24,-3,-41,-6,-52v51,9,133,9,184,0v-14,35,-12,108,-18,164v65,-102,185,-184,328,-184v204,0,330,140,330,347r0,476v0,75,4,102,14,176v-54,-7,-136,-7,-190,0v23,-169,14,-396,17,-604v2,-167,-80,-285,-238,-285v-208,0,-253,166,-253,397v0,118,1,223,4,316v1,53,3,92,5,115v2,23,5,44,8,61v-54,-7,-137,-7,-191,0"},"\u00f2":{"d":"-179,499v-108,0,-232,-57,-231,-158v0,-61,46,-105,139,-134v-75,-27,-112,-67,-112,-120v1,-93,104,-141,207,-141v85,0,169,27,175,90v3,25,-23,49,-48,48v-21,0,-40,-14,-52,-43v-42,-105,-190,-65,-190,50v0,69,36,104,108,104v32,0,100,-20,100,15v0,38,-72,14,-101,14v-76,0,-114,39,-114,117v0,73,42,125,115,124v45,0,74,-24,89,-70v12,-39,22,-63,63,-65v27,-1,52,22,51,50v-2,79,-107,119,-199,119xm-707,388v18,78,34,101,117,112v78,-5,85,-10,125,-52r-5,-27v-30,21,-90,29,-118,-4v-11,-12,-19,-28,-19,-49v0,-61,54,-283,76,-372v15,-61,-23,-47,-67,-48v-17,0,-28,16,-33,49v-5,33,-11,66,-17,99v-17,89,-39,184,-74,252v-19,37,-63,70,-119,70v-224,0,-204,-315,-147,-495v51,-161,151,-301,230,-430v11,-18,-5,-24,-43,-24v-90,0,-141,13,-156,56r-61,181v-73,210,-174,612,28,760v24,18,61,35,111,35v89,0,122,-46,172,-113","w":0},"\u00f3":{"d":"863,-1374v-134,104,-202,165,-323,290r-74,0v78,-124,113,-188,174,-324v88,18,131,17,220,0xm555,25v-282,0,-474,-214,-474,-501v0,-300,208,-518,506,-518v282,0,474,214,474,502v0,301,-207,517,-506,517xm571,-48v208,0,304,-214,304,-450v0,-242,-87,-423,-304,-423v-208,0,-304,215,-304,451v0,242,86,422,304,422"},"\u00f4":{"d":"859,-1126v-51,20,-75,33,-118,62v-43,-78,-116,-153,-170,-224r-147,185v-14,19,-22,31,-25,38v-44,-28,-65,-41,-116,-61v77,-66,174,-191,230,-266r116,0v50,74,143,181,213,252v8,7,13,12,17,14xm555,25v-282,0,-474,-214,-474,-501v0,-300,208,-518,506,-518v282,0,474,214,474,502v0,301,-207,517,-506,517xm571,-48v208,0,304,-214,304,-450v0,-242,-87,-423,-304,-423v-208,0,-304,215,-304,451v0,242,86,422,304,422"},"\u00f5":{"d":"429,-1189v-52,0,-67,17,-95,50r-53,0v17,-84,77,-185,160,-188v114,-4,291,102,367,2r53,0v-16,83,-78,186,-160,186v-87,0,-185,-50,-272,-50xm555,25v-282,0,-474,-214,-474,-501v0,-300,208,-518,506,-518v282,0,474,214,474,502v0,301,-207,517,-506,517xm571,-48v208,0,304,-214,304,-450v0,-242,-87,-423,-304,-423v-208,0,-304,215,-304,451v0,242,86,422,304,422"},"\u00f6":{"d":"268,-1231v0,-53,44,-98,97,-98v53,0,97,45,97,98v0,53,-44,97,-97,97v-53,0,-97,-44,-97,-97xm679,-1231v0,-53,44,-98,97,-98v53,0,97,45,97,98v0,53,-44,97,-97,97v-53,0,-97,-44,-97,-97xm555,25v-282,0,-474,-214,-474,-501v0,-300,208,-518,506,-518v282,0,474,214,474,502v0,301,-207,517,-506,517xm571,-48v208,0,304,-214,304,-450v0,-242,-87,-423,-304,-423v-208,0,-304,215,-304,451v0,242,86,422,304,422"},"\u00f7":{"d":"806,-224v0,-53,45,-98,98,-98v53,0,98,45,98,98v0,53,-45,98,-98,98v-53,0,-98,-45,-98,-98xm376,-555r1056,0r0,109r-1056,0r0,-109xm806,-777v0,-53,45,-98,98,-98v53,0,98,45,98,98v0,53,-45,98,-98,98v-53,0,-98,-45,-98,-98","w":1813},"\u00f8":{"d":"573,-48v208,-5,304,-214,304,-450v0,-81,-9,-151,-28,-210r-276,281r-237,250v47,82,132,131,237,129xm1063,-492v0,301,-207,517,-506,517v-123,0,-227,-36,-310,-107r-95,106v-30,-31,-46,-45,-81,-70r111,-107v-67,-87,-99,-194,-99,-323v0,-300,208,-518,506,-518v121,0,223,35,305,104r100,-111v28,29,51,47,81,70r-114,110v69,88,102,198,102,329xm807,-796v-48,-80,-131,-127,-234,-125v-208,4,-304,215,-304,451v0,78,9,146,26,203r278,-283"},"\u00f9":{"d":"644,-1084v-65,-64,-121,-118,-170,-162v-42,-38,-92,-81,-151,-128r4,-34v88,17,130,18,217,0v59,136,94,200,171,324r-71,0xm502,26v-200,0,-325,-143,-322,-348r1,-165v0,-116,-1,-220,-4,-311v-1,-53,-3,-92,-5,-115v-2,-23,-5,-44,-8,-61v54,9,137,9,191,0v-28,169,-13,405,-17,607v-3,165,80,283,236,283v205,0,250,-173,250,-403v0,-116,-1,-220,-4,-311v-1,-53,-3,-92,-5,-115v-2,-23,-5,-44,-8,-61v54,9,136,9,190,0v-27,210,-14,548,-14,803v0,74,5,103,14,176v-49,-7,-124,-7,-173,0v10,-59,10,-94,15,-177v-62,109,-188,198,-337,198"},"\u00fa":{"d":"872,-1374v-134,104,-202,165,-323,290r-74,0v78,-124,113,-188,174,-324v88,18,131,17,220,0xm502,26v-200,0,-325,-143,-322,-348r1,-165v0,-116,-1,-220,-4,-311v-1,-53,-3,-92,-5,-115v-2,-23,-5,-44,-8,-61v54,9,137,9,191,0v-28,169,-13,405,-17,607v-3,165,80,283,236,283v205,0,250,-173,250,-403v0,-116,-1,-220,-4,-311v-1,-53,-3,-92,-5,-115v-2,-23,-5,-44,-8,-61v54,9,136,9,190,0v-27,210,-14,548,-14,803v0,74,5,103,14,176v-49,-7,-124,-7,-173,0v10,-59,10,-94,15,-177v-62,109,-188,198,-337,198"},"\u00fb":{"d":"868,-1126v-51,20,-75,33,-118,62v-43,-78,-116,-153,-170,-224r-148,185v-14,19,-21,31,-24,38v-44,-28,-65,-41,-116,-61v77,-66,174,-191,230,-266r116,0v50,74,142,181,212,252v8,7,14,12,18,14xm502,26v-200,0,-325,-143,-322,-348r1,-165v0,-116,-1,-220,-4,-311v-1,-53,-3,-92,-5,-115v-2,-23,-5,-44,-8,-61v54,9,137,9,191,0v-28,169,-13,405,-17,607v-3,165,80,283,236,283v205,0,250,-173,250,-403v0,-116,-1,-220,-4,-311v-1,-53,-3,-92,-5,-115v-2,-23,-5,-44,-8,-61v54,9,136,9,190,0v-27,210,-14,548,-14,803v0,74,5,103,14,176v-49,-7,-124,-7,-173,0v10,-59,10,-94,15,-177v-62,109,-188,198,-337,198"},"\u00fc":{"d":"277,-1231v0,-53,44,-98,97,-98v53,0,97,45,97,98v0,53,-44,97,-97,97v-53,0,-97,-44,-97,-97xm688,-1231v0,-53,44,-98,97,-98v53,0,97,45,97,98v0,53,-44,97,-97,97v-53,0,-97,-44,-97,-97xm502,26v-200,0,-325,-143,-322,-348r1,-165v0,-116,-1,-220,-4,-311v-1,-53,-3,-92,-5,-115v-2,-23,-5,-44,-8,-61v54,9,137,9,191,0v-28,169,-13,405,-17,607v-3,165,80,283,236,283v205,0,250,-173,250,-403v0,-116,-1,-220,-4,-311v-1,-53,-3,-92,-5,-115v-2,-23,-5,-44,-8,-61v54,9,136,9,190,0v-27,210,-14,548,-14,803v0,74,5,103,14,176v-49,-7,-124,-7,-173,0v10,-59,10,-94,15,-177v-62,109,-188,198,-337,198"},"\u00fd":{"d":"844,-1374v-134,104,-202,165,-323,290r-74,0v78,-124,113,-188,174,-324v88,18,131,17,220,0xm675,-284v-91,197,-161,374,-221,529v-30,77,-43,105,-59,176v-50,-7,-128,-7,-178,0v100,-129,164,-273,247,-418v-51,-133,-119,-295,-202,-486r-141,-315v-27,-56,-46,-96,-58,-119v-12,-23,-23,-42,-33,-57v65,7,165,7,231,0v11,107,30,144,71,246r104,251r116,269r168,-414v58,-155,87,-204,103,-352v50,7,128,7,178,0v-122,214,-220,461,-326,690","w":1020},"\u00fe":{"d":"146,425v17,-122,15,-187,16,-352r0,-1246v-1,-171,3,-237,-16,-352v55,9,139,9,193,0v-29,181,-11,475,-16,704v75,-104,193,-173,332,-173v253,0,415,207,415,471v0,301,-171,548,-455,548v-121,0,-223,-56,-292,-151r3,414v2,47,6,92,13,137v-55,-7,-139,-7,-193,0xm315,-467v0,231,73,414,275,414v221,0,294,-192,294,-444v0,-233,-73,-419,-277,-419v-221,0,-292,196,-292,449"},"\u00ff":{"d":"249,-1231v0,-53,44,-98,97,-98v53,0,97,45,97,98v0,53,-44,97,-97,97v-53,0,-97,-44,-97,-97xm660,-1231v0,-53,44,-98,97,-98v53,0,97,45,97,98v0,53,-44,97,-97,97v-53,0,-97,-44,-97,-97xm675,-284v-91,197,-161,374,-221,529v-30,77,-43,105,-59,176v-50,-7,-128,-7,-178,0v100,-129,164,-273,247,-418v-51,-133,-119,-295,-202,-486r-141,-315v-27,-56,-46,-96,-58,-119v-12,-23,-23,-42,-33,-57v65,7,165,7,231,0v11,107,30,144,71,246r104,251r116,269r168,-414v58,-155,87,-204,103,-352v50,7,128,7,178,0v-122,214,-220,461,-326,690","w":1020},"\u0100":{"d":"365,-1730r644,0r0,124r-644,0r0,-124xm361,-693v129,-278,227,-515,302,-706r49,0v75,189,174,424,296,704r199,448r119,252v-64,-7,-162,-7,-225,0v-45,-178,-137,-355,-203,-526v-147,-18,-370,-30,-512,0v-43,97,-80,189,-114,274v-43,108,-60,147,-85,252v-46,-7,-117,-7,-163,0v120,-217,230,-467,337,-698xm442,-653v119,19,280,13,399,-2r-197,-455","w":1360},"\u0101":{"d":"178,-1288r602,0r0,117r-602,0r0,-117xm682,-108v-70,73,-201,133,-323,133v-162,0,-288,-105,-285,-263v3,-167,122,-243,281,-274r253,-49v62,-12,76,-33,76,-105v0,-163,-79,-255,-238,-255v-136,1,-217,59,-261,159r-23,0r-1,-116v72,-62,194,-115,315,-116v224,-2,363,111,363,328r0,519v-4,71,32,114,98,95r11,45v-38,22,-87,32,-147,32v-72,0,-107,-62,-119,-133xm441,-85v111,0,196,-50,243,-119r0,-295v-180,38,-420,41,-424,241v-2,112,68,173,181,173","w":982},"\u0102":{"d":"993,-1829v-17,177,-125,317,-306,317v-192,0,-282,-131,-305,-317r76,0v29,105,98,157,229,158v121,0,200,-58,222,-158r84,0xm361,-693v129,-278,227,-515,302,-706r49,0v75,189,174,424,296,704r199,448r119,252v-64,-7,-162,-7,-225,0v-45,-178,-137,-355,-203,-526v-147,-18,-370,-30,-512,0v-43,97,-80,189,-114,274v-43,108,-60,147,-85,252v-46,-7,-117,-7,-163,0v120,-217,230,-467,337,-698xm442,-653v119,19,280,13,399,-2r-197,-455","w":1360},"\u0103":{"d":"783,-1399v-17,176,-124,317,-304,317v-191,0,-281,-131,-304,-317r76,0v29,105,98,157,228,158v120,0,198,-58,220,-158r84,0xm682,-108v-70,73,-201,133,-323,133v-162,0,-288,-105,-285,-263v3,-167,122,-243,281,-274r253,-49v62,-12,76,-33,76,-105v0,-163,-79,-255,-238,-255v-136,1,-217,59,-261,159r-23,0r-1,-116v72,-62,194,-115,315,-116v224,-2,363,111,363,328r0,519v-4,71,32,114,98,95r11,45v-38,22,-87,32,-147,32v-72,0,-107,-62,-119,-133xm441,-85v111,0,196,-50,243,-119r0,-295v-180,38,-420,41,-424,241v-2,112,68,173,181,173","w":982},"\u0104":{"d":"1101,329v-104,2,-214,-58,-215,-151v0,-39,18,-77,55,-116v37,-39,90,-76,160,-111r86,0v-64,43,-110,81,-137,113v-27,32,-40,62,-40,93v0,58,52,93,115,92v61,-2,113,-35,152,-69r57,66v-51,44,-145,81,-233,83xm361,-693v129,-278,227,-515,302,-706r49,0v75,189,174,424,296,704r199,448r119,252v-64,-7,-162,-7,-225,0v-45,-178,-137,-355,-203,-526v-147,-18,-370,-30,-512,0v-43,97,-80,189,-114,274v-43,108,-60,147,-85,252v-46,-7,-117,-7,-163,0v120,-217,230,-467,337,-698xm442,-653v119,19,280,13,399,-2r-197,-455","w":1360},"\u0105":{"d":"786,329v-103,2,-208,-59,-209,-151v0,-38,18,-76,53,-115v35,-39,87,-76,154,-112r86,0v-61,43,-104,79,-130,111v-26,32,-39,64,-39,95v0,58,49,94,110,92v57,-2,107,-36,145,-69r57,66v-51,44,-140,81,-227,83xm682,-108v-70,73,-201,133,-323,133v-162,0,-288,-105,-285,-263v3,-167,122,-243,281,-274r253,-49v62,-12,76,-33,76,-105v0,-163,-79,-255,-238,-255v-136,1,-217,59,-261,159r-23,0r-1,-116v72,-62,194,-115,315,-116v224,-2,363,111,363,328r0,519v-4,71,32,114,98,95r11,45v-38,22,-87,32,-147,32v-72,0,-107,-62,-119,-133xm441,-85v111,0,196,-50,243,-119r0,-295v-180,38,-420,41,-424,241v-2,112,68,173,181,173","w":982},"\u0106":{"d":"749,-1514v76,-124,111,-188,170,-324v92,21,140,19,235,0r2,53v-116,91,-198,157,-312,271r-95,0xm837,-61v175,-1,337,-72,428,-166r17,22v-9,45,-14,71,-17,121v-134,73,-267,109,-464,112v-415,5,-711,-291,-711,-704v0,-441,315,-757,756,-751v187,2,322,32,460,91v-11,33,-19,60,-26,84v-7,24,-14,53,-21,86r-33,1v-77,-93,-221,-171,-377,-173v-348,-1,-549,288,-549,656v0,336,217,623,537,621","w":1360},"\u0107":{"d":"884,-1374v-134,104,-202,165,-323,290r-74,0v78,-124,113,-188,174,-324v88,18,131,17,220,0xm631,-48v123,-2,206,-58,272,-133r18,23r-18,90v-80,58,-186,91,-319,93v-294,4,-504,-208,-504,-501v0,-362,305,-594,686,-496v60,15,117,34,172,61v-20,57,-29,88,-42,151r-29,0v-46,-92,-139,-161,-268,-161v-221,0,-333,209,-333,453v0,225,150,423,365,420","w":982},"\u010c":{"d":"512,-1758v70,-27,101,-45,159,-86v42,75,119,158,175,226r145,-174v19,-25,31,-42,34,-50v57,40,87,57,155,84v-96,61,-205,174,-276,244r-116,0v-69,-73,-179,-182,-276,-244xm837,-61v175,-1,337,-72,428,-166r17,22v-9,45,-14,71,-17,121v-134,73,-267,109,-464,112v-415,5,-711,-291,-711,-704v0,-441,315,-757,756,-751v187,2,322,32,460,91v-11,33,-19,60,-26,84v-7,24,-14,53,-21,86r-33,1v-77,-93,-221,-171,-377,-173v-348,-1,-549,288,-549,656v0,336,217,623,537,621","w":1360},"\u010d":{"d":"304,-1334v51,-20,75,-33,118,-62v43,78,116,153,170,224r148,-185v14,-19,21,-31,24,-38v44,28,65,41,116,61v-77,66,-174,191,-230,266r-116,0v-50,-74,-142,-181,-212,-252v-8,-7,-14,-12,-18,-14xm631,-48v123,-2,206,-58,272,-133r18,23r-18,90v-80,58,-186,91,-319,93v-294,4,-504,-208,-504,-501v0,-362,305,-594,686,-496v60,15,117,34,172,61v-20,57,-29,88,-42,151r-29,0v-46,-92,-139,-161,-268,-161v-221,0,-333,209,-333,453v0,225,150,423,365,420","w":982},"\u010e":{"d":"453,-1758v70,-27,101,-45,159,-86v42,75,119,158,175,226r145,-174v19,-25,31,-42,34,-50v57,40,87,57,155,84v-96,61,-205,174,-276,244r-116,0v-69,-73,-179,-182,-276,-244xm203,5v28,-378,19,-944,7,-1339v-2,-34,-4,-57,-7,-70v191,11,396,0,593,0v436,0,696,231,696,660v0,474,-325,755,-810,749r-375,-5xm1282,-760v-1,-360,-210,-541,-578,-539v-116,0,-217,3,-302,9r0,0v-6,167,-8,364,-8,590v0,227,2,424,6,589v86,9,186,12,300,11v396,-2,583,-249,582,-660","w":1586},"\u010f":{"d":"1087,-1061r125,-395v19,-41,47,-75,103,-55v53,18,44,87,17,132r-202,337xm839,-212v-61,135,-197,237,-370,237v-255,0,-406,-229,-406,-502v0,-287,167,-517,438,-517v135,0,251,67,319,172v1,-197,0,-373,-4,-527v-1,-58,-4,-99,-6,-122v-2,-23,-3,-41,-6,-54v54,9,137,9,191,0v-11,53,-10,89,-12,176v-4,168,-7,363,-5,586r5,592v2,84,2,115,12,176v-49,-7,-124,-7,-173,0v11,-54,12,-133,17,-217xm820,-493v0,-234,-79,-415,-286,-415v-216,0,-285,190,-285,437v0,229,72,410,273,410v205,0,298,-201,298,-432","w":1284},"\u0110":{"d":"1497,-744v0,473,-323,755,-808,749r-374,-5r-104,5v19,-175,13,-460,17,-668r-165,0r0,-99r165,0r-4,-390v-3,-87,-4,-148,-6,-182v-2,-34,-4,-57,-7,-70v191,11,395,0,592,0v435,0,694,232,694,660xm1287,-760v-1,-359,-209,-541,-576,-539v-116,0,-216,3,-301,9v-5,153,-8,329,-8,528r159,0r0,99r-159,0r6,552v85,9,185,12,299,11v395,-2,581,-249,580,-660","w":1586},"\u0111":{"d":"836,-212v-61,135,-197,237,-370,237v-255,0,-406,-229,-406,-502v0,-287,167,-517,438,-517v135,0,251,67,319,172r-1,-344v-60,5,-135,2,-186,15v5,-44,5,-67,0,-110v48,15,124,11,185,14r-7,-224v-2,-23,-4,-41,-7,-54v54,9,137,9,191,0v-14,65,-10,183,-14,277v51,-2,112,0,151,-13v-4,43,-4,66,0,110v-39,-11,-101,-12,-151,-14v-3,123,-4,257,-3,402r5,592v2,84,2,115,12,176v-49,-7,-124,-7,-173,0v11,-54,12,-133,17,-217xm817,-493v0,-234,-79,-415,-286,-415v-216,0,-285,190,-285,437v0,229,72,410,273,410v205,0,298,-201,298,-432"},"\u0112":{"d":"182,-1730r644,0r0,124r-644,0r0,-124xm147,16v28,-384,20,-959,7,-1360v-2,-34,-4,-58,-7,-71v210,24,529,24,739,-2v-8,39,-8,100,0,139v-142,-24,-377,-22,-542,-16r-6,514r181,-1v91,0,249,-5,315,-17v-8,38,-8,98,0,137v-128,-19,-341,-17,-495,-18v-1,221,1,412,6,575r205,2v96,1,265,-8,336,-21v-8,40,-8,101,0,141v-213,-24,-525,-26,-739,-2","w":1020},"\u0113":{"d":"191,-1288r602,0r0,117r-602,0r0,-117xm549,-48v149,0,248,-64,328,-152r18,23v-9,35,-14,51,-18,90v-97,69,-219,110,-376,112v-280,3,-466,-216,-466,-502v0,-291,177,-517,457,-517v307,0,443,205,421,529v-195,-24,-471,-16,-696,-17v-11,259,95,434,332,434xm487,-921v-177,0,-248,160,-265,352r505,0v12,-193,-71,-352,-240,-352","w":980},"\u0116":{"d":"438,-1668v0,-56,46,-102,101,-102v55,0,101,47,101,102v0,55,-47,101,-101,101v-55,0,-101,-47,-101,-101xm147,16v28,-384,20,-959,7,-1360v-2,-34,-4,-58,-7,-71v210,24,529,24,739,-2v-8,39,-8,100,0,139v-142,-24,-377,-22,-542,-16r-6,514r181,-1v91,0,249,-5,315,-17v-8,38,-8,98,0,137v-128,-19,-341,-17,-495,-18v-1,221,1,412,6,575r205,2v96,1,265,-8,336,-21v-8,40,-8,101,0,141v-213,-24,-525,-26,-739,-2","w":1020},"\u0117":{"d":"435,-1234v0,-53,44,-97,97,-97v53,0,97,44,97,97v0,53,-44,97,-97,97v-53,0,-97,-44,-97,-97xm589,-48v149,0,248,-64,328,-152r18,23v-9,35,-14,51,-18,90v-97,69,-219,110,-376,112v-280,3,-466,-216,-466,-502v0,-291,177,-517,457,-517v307,0,443,205,421,529v-195,-24,-471,-16,-696,-17v-11,259,95,434,332,434xm527,-921v-177,0,-248,160,-265,352r505,0v12,-193,-71,-352,-240,-352","w":1020},"\u0118":{"d":"740,329v-104,2,-214,-58,-215,-151v0,-39,18,-77,55,-116v37,-39,90,-76,160,-111r86,0v-64,43,-109,81,-136,113v-27,32,-41,62,-41,93v0,58,52,93,115,92v61,-2,113,-35,152,-69r57,66v-51,44,-145,81,-233,83xm147,16v28,-384,20,-959,7,-1360v-2,-34,-4,-58,-7,-71v210,24,529,24,739,-2v-8,39,-8,100,0,139v-142,-24,-377,-22,-542,-16r-6,514r181,-1v91,0,249,-5,315,-17v-8,38,-8,98,0,137v-128,-19,-341,-17,-495,-18v-1,221,1,412,6,575r205,2v96,1,265,-8,336,-21v-8,40,-8,101,0,141v-213,-24,-525,-26,-739,-2","w":1020},"\u0119":{"d":"648,329v-103,2,-208,-59,-209,-151v0,-38,18,-76,53,-115v35,-39,87,-76,154,-112r86,0v-61,43,-104,79,-130,111v-26,32,-39,64,-39,95v0,58,49,94,110,92v57,-2,107,-36,145,-69r57,66v-51,44,-140,81,-227,83xm589,-48v149,0,248,-64,328,-152r18,23v-9,35,-14,51,-18,90v-97,69,-219,110,-376,112v-280,3,-466,-216,-466,-502v0,-291,177,-517,457,-517v307,0,443,205,421,529v-195,-24,-471,-16,-696,-17v-11,259,95,434,332,434xm527,-921v-177,0,-248,160,-265,352r505,0v12,-193,-71,-352,-240,-352","w":1020},"\u011a":{"d":"177,-1758v70,-27,101,-45,159,-86v42,75,119,158,175,226r145,-174v19,-25,31,-42,34,-50v57,40,87,57,155,84v-96,61,-205,174,-276,244r-116,0v-69,-73,-179,-182,-276,-244xm147,16v28,-384,20,-959,7,-1360v-2,-34,-4,-58,-7,-71v210,24,529,24,739,-2v-8,39,-8,100,0,139v-142,-24,-377,-22,-542,-16r-6,514r181,-1v91,0,249,-5,315,-17v-8,38,-8,98,0,137v-128,-19,-341,-17,-495,-18v-1,221,1,412,6,575r205,2v96,1,265,-8,336,-21v-8,40,-8,101,0,141v-213,-24,-525,-26,-739,-2","w":1020},"\u011b":{"d":"244,-1334v51,-20,75,-33,118,-62v43,78,116,153,170,224r148,-185v14,-19,21,-31,24,-38v44,28,65,41,116,61v-77,66,-174,191,-230,266r-116,0v-50,-74,-142,-181,-212,-252v-8,-7,-14,-12,-18,-14xm589,-48v149,0,248,-64,328,-152r18,23v-9,35,-14,51,-18,90v-97,69,-219,110,-376,112v-280,3,-466,-216,-466,-502v0,-291,177,-517,457,-517v307,0,443,205,421,529v-195,-24,-471,-16,-696,-17v-11,259,95,434,332,434xm527,-921v-177,0,-248,160,-265,352r505,0v12,-193,-71,-352,-240,-352","w":1020},"\u011e":{"d":"1159,-1829v-17,177,-125,317,-306,317v-192,0,-282,-131,-305,-317r76,0v29,105,98,157,229,158v121,0,200,-58,222,-158r84,0xm1408,-649v-24,146,-22,449,-3,589v-166,59,-357,88,-574,88v-427,0,-743,-283,-743,-703v0,-442,320,-758,765,-752v225,3,395,45,548,126v-11,32,-19,59,-26,83v-7,24,-14,53,-21,87r-33,1v-95,-110,-261,-206,-445,-208v-360,-3,-578,281,-578,657v0,362,225,620,578,620v113,0,226,-23,339,-68r0,-142v-1,-173,-1,-237,-21,-378v60,7,154,7,214,0","w":1586},"\u011f":{"d":"813,-1399v-17,176,-124,317,-304,317v-191,0,-281,-131,-304,-317r76,0v29,105,98,157,228,158v120,0,198,-58,220,-158r84,0xm893,-688v-3,219,-213,332,-462,314v-73,-5,-139,15,-136,89v3,63,58,73,136,74r210,0v199,-1,350,68,352,246v3,232,-260,385,-515,385v-191,0,-392,-95,-399,-261v-5,-119,132,-219,250,-249v-89,-12,-166,-54,-164,-139v3,-89,71,-145,149,-171v-114,-38,-210,-143,-208,-276v4,-219,212,-340,458,-316v131,13,294,6,411,-13v-5,43,-5,66,0,110r-191,-16v72,55,109,132,109,223xm707,-692v0,-130,-80,-227,-208,-227v-131,0,-207,108,-207,247v0,139,72,225,207,225v132,1,208,-107,208,-245xm514,-77v-162,-2,-294,66,-294,211v0,150,127,211,294,211v163,0,332,-92,332,-238v0,-147,-154,-182,-332,-184","w":1020},"\u0122":{"d":"641,553r125,-395v19,-41,47,-75,103,-55v53,18,44,87,17,132r-202,337xm1408,-649v-24,146,-22,449,-3,589v-166,59,-357,88,-574,88v-427,0,-743,-283,-743,-703v0,-442,320,-758,765,-752v225,3,395,45,548,126v-11,32,-19,59,-26,83v-7,24,-14,53,-21,87r-33,1v-95,-110,-261,-206,-445,-208v-360,-3,-578,281,-578,657v0,362,225,620,578,620v113,0,226,-23,339,-68r0,-142v-1,-173,-1,-237,-21,-378v60,7,154,7,214,0","w":1586},"\u0123":{"d":"673,-1532r-125,395v-19,41,-47,75,-103,55v-53,-18,-44,-87,-17,-132r202,-337xm893,-688v-3,219,-213,332,-462,314v-73,-5,-139,15,-136,89v3,63,58,73,136,74r210,0v199,-1,350,68,352,246v3,232,-260,385,-515,385v-191,0,-392,-95,-399,-261v-5,-119,132,-219,250,-249v-89,-12,-166,-54,-164,-139v3,-89,71,-145,149,-171v-114,-38,-210,-143,-208,-276v4,-219,212,-340,458,-316v131,13,294,6,411,-13v-5,43,-5,66,0,110r-191,-16v72,55,109,132,109,223xm707,-692v0,-130,-80,-227,-208,-227v-131,0,-207,108,-207,247v0,139,72,225,207,225v132,1,208,-107,208,-245xm514,-77v-162,-2,-294,66,-294,211v0,150,127,211,294,211v163,0,332,-92,332,-238v0,-147,-154,-182,-332,-184","w":1020},"\u012a":{"d":"-32,-1730r644,0r0,124r-644,0r0,-124xm186,5v28,-378,20,-944,7,-1339v-2,-34,-4,-57,-7,-70v59,7,149,7,208,0v-27,378,-20,943,-7,1338v2,34,4,58,7,71v-59,-7,-149,-7,-208,0","w":566},"\u012b":{"d":"-21,-1288r602,0r0,117r-602,0r0,-117xm185,5v28,-255,19,-643,8,-918v-1,-23,-5,-44,-8,-61v54,9,137,9,191,0v-26,130,-17,330,-17,487v0,118,1,223,4,316v1,53,3,92,5,115v2,23,5,44,8,61v-54,-7,-137,-7,-191,0","w":566},"\u012e":{"d":"296,329v-104,2,-214,-58,-215,-151v0,-39,18,-77,55,-116v37,-39,90,-76,160,-111r86,0v-64,43,-109,81,-136,113v-27,32,-41,62,-41,93v0,58,52,93,115,92v61,-2,113,-35,152,-69r57,66v-51,44,-145,81,-233,83xm192,5v28,-378,20,-944,7,-1339v-2,-34,-4,-57,-7,-70v59,7,149,7,208,0v-27,378,-20,943,-7,1338v2,34,4,58,7,71v-59,-7,-149,-7,-208,0","w":566},"\u012f":{"d":"285,329v-103,2,-208,-59,-209,-151v0,-38,18,-76,53,-115v35,-39,87,-76,154,-112r86,0v-61,43,-104,79,-130,111v-26,32,-39,64,-39,95v0,58,49,94,110,92v57,-2,107,-36,145,-69r57,66v-51,44,-140,81,-227,83xm188,5v28,-255,19,-643,8,-918v-1,-23,-5,-44,-8,-61v54,9,137,9,191,0v-26,130,-17,330,-17,487v0,118,1,223,4,316v1,53,3,92,5,115v2,23,5,44,8,61v-54,-7,-137,-7,-191,0xm182,-1327v0,-57,47,-104,104,-104v57,0,104,47,104,104v0,57,-47,104,-104,104v-57,0,-104,-47,-104,-104","w":566},"\u0130":{"d":"184,-1668v0,-56,46,-102,101,-102v55,0,101,47,101,102v0,55,-47,101,-101,101v-55,0,-101,-47,-101,-101xm181,5v28,-378,20,-944,7,-1339v-2,-34,-4,-57,-7,-70v59,7,149,7,208,0v-27,378,-20,943,-7,1338v2,34,4,58,7,71v-59,-7,-149,-7,-208,0","w":566},"\u0136":{"d":"494,553r125,-395v19,-41,47,-75,103,-55v53,18,44,87,17,132r-202,337xm378,-753v177,-151,491,-470,633,-646v31,1,67,1,106,1v39,0,74,-2,105,-6v-226,189,-449,415,-660,624r222,267r393,459v29,34,48,53,55,59v-73,-7,-186,-7,-259,0v-73,-130,-189,-255,-297,-378r-298,-338r3,464v3,87,5,147,7,181v2,34,3,58,6,71v-59,-7,-149,-7,-208,0v27,-378,19,-944,6,-1339v-2,-34,-3,-57,-6,-70v59,7,149,7,208,0v-18,176,-15,428,-16,651","w":1246},"\u0137":{"d":"349,553r125,-395v19,-41,47,-75,103,-55v53,18,44,87,17,132r-202,337xm331,-1525v-27,275,-13,635,-17,973v41,0,58,-1,80,-22v49,-45,104,-98,164,-159r63,-65v64,-66,87,-95,142,-176v55,7,139,7,193,0v-59,47,-360,315,-461,412r342,391v77,83,104,115,182,176v-76,-7,-196,-7,-272,0v-52,-101,-126,-179,-199,-269v-76,-94,-145,-172,-204,-235r-29,0v0,118,1,227,4,328v3,86,2,118,12,176v-54,-7,-137,-7,-191,0v22,-231,17,-473,17,-767v0,-222,-1,-418,-5,-587v-2,-87,-1,-122,-12,-176v54,9,137,9,191,0","w":1020},"\u0139":{"d":"263,-1514v76,-124,111,-188,170,-324v92,21,140,19,235,0r2,53v-116,91,-198,157,-312,271r-95,0xm200,16v27,-381,19,-951,6,-1350v-2,-34,-3,-57,-6,-70v59,7,149,7,208,0v-29,353,-15,932,-11,1300r218,2v96,1,265,-8,336,-21v-8,40,-8,101,0,141v-217,-24,-533,-27,-751,-2","w":1020},"\u013a":{"d":"234,-1598v76,-124,111,-188,170,-324v92,21,140,19,235,0r2,53v-116,91,-198,157,-312,271r-95,0xm385,-1525v-32,388,-12,913,-12,1354v0,84,2,115,12,176v-54,-7,-137,-7,-191,0v31,-424,15,-999,8,-1470v0,-23,-4,-43,-8,-60v54,9,137,9,191,0","w":566},"\u013b":{"d":"389,553r125,-395v19,-41,47,-75,103,-55v53,18,44,87,17,132r-202,337xm200,16v27,-381,19,-951,6,-1350v-2,-34,-3,-57,-6,-70v59,7,149,7,208,0v-29,353,-15,932,-11,1300r218,2v96,1,265,-8,336,-21v-8,40,-8,101,0,141v-217,-24,-533,-27,-751,-2","w":1020},"\u013c":{"d":"100,553r125,-395v19,-41,47,-75,103,-55v53,18,44,87,17,132r-202,337xm386,-1525v-32,388,-12,913,-12,1354v0,84,2,115,12,176v-54,-7,-137,-7,-191,0v31,-424,15,-999,8,-1470v0,-23,-4,-43,-8,-60v54,9,137,9,191,0","w":566},"\u013d":{"d":"507,-968r125,-395v19,-41,47,-75,103,-55v53,18,44,87,17,132r-202,337xm200,16v27,-381,19,-951,6,-1350v-2,-34,-3,-57,-6,-70v59,7,149,7,208,0v-29,353,-15,932,-11,1300r218,2v96,1,265,-8,336,-21v-8,40,-8,101,0,141v-217,-24,-533,-27,-751,-2","w":1020},"\u013e":{"d":"476,-1061r125,-395v19,-41,47,-75,103,-55v53,18,44,87,17,132r-202,337xm385,-1525v-32,388,-12,913,-12,1354v0,84,2,115,12,176v-54,-7,-137,-7,-191,0v31,-424,15,-999,8,-1470v0,-23,-4,-43,-8,-60v54,9,137,9,191,0","w":680},"\u0141":{"d":"957,18v-217,-24,-534,-27,-751,-2v17,-142,13,-388,16,-565r-144,107v-28,23,-46,38,-53,47r0,-145v59,-27,141,-91,199,-133r-5,-479v-3,-87,-5,-148,-7,-182v-2,-34,-3,-57,-6,-70v59,7,149,7,208,0v-17,154,-13,418,-18,606v60,-46,152,-105,199,-156r0,148v-56,29,-143,92,-198,131v1,219,3,410,6,571r218,2v96,1,265,-8,336,-21v-8,40,-8,101,0,141","w":1020},"\u0142":{"d":"191,5v21,-186,10,-447,17,-655v-80,81,-147,152,-201,212r0,-140r201,-187r-5,-584v-2,-86,0,-119,-12,-176v54,9,137,9,191,0v-21,168,-11,411,-17,602v79,-79,145,-149,199,-210r0,140v-58,51,-124,113,-199,186r5,636v2,84,2,115,12,176v-54,-7,-137,-7,-191,0","w":566},"\u0143":{"d":"700,-1514v76,-124,111,-188,170,-324v92,21,140,19,235,0r2,53v-116,91,-198,157,-312,271r-95,0xm1393,-1404v-30,386,-16,1055,-7,1432r-56,0r-668,-724r-339,-353r0,349v1,168,3,319,7,453v3,85,5,145,7,179v2,34,4,58,7,73v-40,-7,-102,-7,-142,0v27,-377,19,-939,6,-1333v-2,-34,-3,-58,-6,-71r60,0r668,724r337,350r1,-360v0,-173,-1,-328,-4,-467v-2,-88,-4,-148,-6,-182v-2,-34,-4,-57,-7,-70v40,7,102,7,142,0","w":1586},"\u0144":{"d":"855,-1374v-134,104,-202,165,-323,290r-74,0v78,-124,113,-188,174,-324v88,18,131,17,220,0xm148,5v28,-257,19,-653,6,-927v-2,-24,-3,-41,-6,-52v51,9,133,9,184,0v-14,35,-12,108,-18,164v65,-102,185,-184,328,-184v204,0,330,140,330,347r0,476v0,75,4,102,14,176v-54,-7,-136,-7,-190,0v23,-169,14,-396,17,-604v2,-167,-80,-285,-238,-285v-208,0,-253,166,-253,397v0,118,1,223,4,316v1,53,3,92,5,115v2,23,5,44,8,61v-54,-7,-137,-7,-191,0"},"\u0145":{"d":"607,553r125,-395v19,-41,47,-75,103,-55v53,18,44,87,17,132r-202,337xm1393,-1404v-30,386,-16,1055,-7,1432r-56,0r-668,-724r-339,-353r0,349v1,168,3,319,7,453v3,85,5,145,7,179v2,34,4,58,7,73v-40,-7,-102,-7,-142,0v27,-377,19,-939,6,-1333v-2,-34,-3,-58,-6,-71r60,0r668,724r337,350r1,-360v0,-173,-1,-328,-4,-467v-2,-88,-4,-148,-6,-182v-2,-34,-4,-57,-7,-70v40,7,102,7,142,0","w":1586},"\u0146":{"d":"373,553r125,-395v19,-41,47,-75,103,-55v53,18,44,87,17,132r-202,337xm148,5v28,-257,19,-653,6,-927v-2,-24,-3,-41,-6,-52v51,9,133,9,184,0v-14,35,-12,108,-18,164v65,-102,185,-184,328,-184v204,0,330,140,330,347r0,476v0,75,4,102,14,176v-54,-7,-136,-7,-190,0v23,-169,14,-396,17,-604v2,-167,-80,-285,-238,-285v-208,0,-253,166,-253,397v0,118,1,223,4,316v1,53,3,92,5,115v2,23,5,44,8,61v-54,-7,-137,-7,-191,0"},"\u0147":{"d":"463,-1758v70,-27,101,-45,159,-86v42,75,119,158,175,226r145,-174v19,-25,31,-42,34,-50v57,40,87,57,155,84v-96,61,-205,174,-276,244r-116,0v-69,-73,-179,-182,-276,-244xm1393,-1404v-30,386,-16,1055,-7,1432r-56,0r-668,-724r-339,-353r0,349v1,168,3,319,7,453v3,85,5,145,7,179v2,34,4,58,7,73v-40,-7,-102,-7,-142,0v27,-377,19,-939,6,-1333v-2,-34,-3,-58,-6,-71r60,0r668,724r337,350r1,-360v0,-173,-1,-328,-4,-467v-2,-88,-4,-148,-6,-182v-2,-34,-4,-57,-7,-70v40,7,102,7,142,0","w":1586},"\u0148":{"d":"317,-1334v51,-20,75,-33,118,-62v43,78,116,153,170,224r147,-185v14,-19,22,-31,25,-38v44,28,65,41,116,61v-77,66,-174,191,-230,266r-116,0v-50,-74,-143,-181,-213,-252v-8,-7,-13,-12,-17,-14xm148,5v28,-257,19,-653,6,-927v-2,-24,-3,-41,-6,-52v51,9,133,9,184,0v-14,35,-12,108,-18,164v65,-102,185,-184,328,-184v204,0,330,140,330,347r0,476v0,75,4,102,14,176v-54,-7,-136,-7,-190,0v23,-169,14,-396,17,-604v2,-167,-80,-285,-238,-285v-208,0,-253,166,-253,397v0,118,1,223,4,316v1,53,3,92,5,115v2,23,5,44,8,61v-54,-7,-137,-7,-191,0"},"\u014c":{"d":"530,-1730r644,0r0,124r-644,0r0,-124xm841,28v-428,0,-748,-283,-748,-703v0,-443,324,-752,770,-752v430,0,749,283,749,704v0,444,-324,751,-771,751xm852,-61v350,0,550,-286,550,-655v0,-358,-206,-622,-550,-622v-348,0,-549,288,-549,656v0,356,207,621,549,621","w":1699},"\u014d":{"d":"270,-1288r602,0r0,117r-602,0r0,-117xm555,25v-282,0,-474,-214,-474,-501v0,-300,208,-518,506,-518v282,0,474,214,474,502v0,301,-207,517,-506,517xm571,-48v208,0,304,-214,304,-450v0,-242,-87,-423,-304,-423v-208,0,-304,215,-304,451v0,242,86,422,304,422"},"\u0150":{"d":"1007,-1782v-126,96,-194,155,-313,271r-95,0v76,-124,112,-188,171,-324v92,19,140,18,235,0xm1357,-1782v-126,96,-194,155,-313,271r-95,0v76,-124,112,-188,171,-324v92,19,140,18,235,0xm841,28v-428,0,-748,-283,-748,-703v0,-443,324,-752,770,-752v430,0,749,283,749,704v0,444,-324,751,-771,751xm852,-61v350,0,550,-286,550,-655v0,-358,-206,-622,-550,-622v-348,0,-549,288,-549,656v0,356,207,621,549,621","w":1699},"\u0151":{"d":"720,-1375v-134,105,-201,166,-323,291r-74,0v78,-124,113,-188,174,-324v88,18,131,17,220,0xm1043,-1375v-134,105,-201,166,-323,291r-74,0v78,-124,113,-188,174,-324v88,18,131,17,220,0xm555,25v-282,0,-474,-214,-474,-501v0,-300,208,-518,506,-518v282,0,474,214,474,502v0,301,-207,517,-506,517xm571,-48v208,0,304,-214,304,-450v0,-242,-87,-423,-304,-423v-208,0,-304,215,-304,451v0,242,86,422,304,422"},"\u0152":{"d":"89,-677v0,-433,297,-747,725,-747v164,0,285,25,450,25r244,0v109,0,208,-3,294,-17v-8,39,-8,100,0,139v-141,-24,-378,-22,-541,-16v-4,147,-6,319,-7,514r181,-1v91,0,249,-5,315,-17v-8,37,-8,97,0,134v-128,-19,-341,-17,-495,-18v-1,223,1,416,6,579v162,11,399,4,541,-17v-8,40,-8,101,0,141v-171,-22,-402,-22,-595,-22v-102,0,-163,18,-271,22v-48,2,-97,3,-144,3v-411,7,-703,-291,-703,-702xm299,-682v0,405,277,701,691,598v66,-16,84,-36,86,-116v3,-146,4,-312,4,-499v0,-190,0,-358,-4,-504v-2,-79,-20,-96,-88,-113v-424,-104,-689,217,-689,634","w":1888},"\u0153":{"d":"74,-476v0,-301,209,-518,508,-518v163,0,302,72,382,185v79,-110,208,-185,365,-185v307,0,443,205,421,529v-195,-24,-471,-16,-696,-17v-11,259,95,434,332,434v149,0,248,-64,328,-152r18,23v-9,35,-14,51,-18,90v-97,69,-219,110,-376,112v-164,2,-301,-76,-379,-191v-88,116,-233,191,-409,191v-283,0,-476,-214,-476,-501xm872,-498v0,-242,-88,-423,-306,-423v-209,0,-306,214,-306,451v0,242,88,422,306,422v209,0,306,-213,306,-450xm1324,-921v-177,0,-248,160,-265,352r505,0v12,-193,-71,-352,-240,-352","w":1813},"\u0154":{"d":"489,-1514v76,-124,111,-188,170,-324v92,21,140,19,235,0r2,53v-116,91,-198,157,-312,271r-95,0xm179,5v28,-378,19,-944,7,-1339v-2,-34,-4,-57,-7,-70v163,11,293,1,444,0v272,-1,445,85,451,332v5,207,-211,343,-421,372r247,316r270,328v29,34,47,54,55,61v-72,-7,-184,-7,-256,0v-71,-134,-189,-271,-293,-399r-237,-293r-69,0v0,163,1,309,4,440v2,87,4,147,6,181v2,34,4,58,7,71v-59,-7,-149,-7,-208,0xm873,-1063v0,-176,-140,-249,-333,-248r-172,7r0,529v30,-3,61,-4,94,-3v219,3,411,-91,411,-285","w":1246},"\u0155":{"d":"681,-1374v-134,104,-202,165,-323,290r-74,0v78,-124,113,-188,174,-324v88,18,131,17,220,0xm166,5v28,-255,19,-642,8,-917v-1,-24,-5,-45,-8,-62v57,9,143,9,200,0v-11,55,-14,97,-18,182v72,-114,182,-243,342,-192v-24,65,-34,97,-36,178v-32,-20,-60,-29,-108,-29v-167,0,-206,156,-206,348v0,118,1,223,4,316v3,59,4,100,6,123v2,23,4,41,7,53v-54,-7,-137,-7,-191,0","w":680},"\u0156":{"d":"513,553r125,-395v19,-41,47,-75,103,-55v53,18,44,87,17,132r-202,337xm179,5v28,-378,19,-944,7,-1339v-2,-34,-4,-57,-7,-70v163,11,293,1,444,0v272,-1,445,85,451,332v5,207,-211,343,-421,372r247,316r270,328v29,34,47,54,55,61v-72,-7,-184,-7,-256,0v-71,-134,-189,-271,-293,-399r-237,-293r-69,0v0,163,1,309,4,440v2,87,4,147,6,181v2,34,4,58,7,71v-59,-7,-149,-7,-208,0xm873,-1063v0,-176,-140,-249,-333,-248r-172,7r0,529v30,-3,61,-4,94,-3v219,3,411,-91,411,-285","w":1246},"\u0157":{"d":"68,553r125,-395v19,-41,47,-75,103,-55v53,18,44,87,17,132r-202,337xm163,5v28,-255,19,-642,8,-917v-1,-24,-5,-45,-8,-62v57,9,143,9,200,0v-11,55,-14,97,-18,182v72,-114,182,-243,342,-192v-24,65,-34,97,-36,178v-32,-20,-60,-29,-108,-29v-167,0,-206,156,-206,348v0,118,1,223,4,316v3,59,4,100,6,123v2,23,4,41,7,53v-54,-7,-137,-7,-191,0","w":680},"\u0158":{"d":"252,-1758v70,-27,101,-45,159,-86v42,75,119,158,175,226r145,-174v19,-25,31,-42,34,-50v57,40,87,57,155,84v-96,61,-205,174,-276,244r-116,0v-69,-73,-179,-182,-276,-244xm179,5v28,-378,19,-944,7,-1339v-2,-34,-4,-57,-7,-70v163,11,293,1,444,0v272,-1,445,85,451,332v5,207,-211,343,-421,372r247,316r270,328v29,34,47,54,55,61v-72,-7,-184,-7,-256,0v-71,-134,-189,-271,-293,-399r-237,-293r-69,0v0,163,1,309,4,440v2,87,4,147,6,181v2,34,4,58,7,71v-59,-7,-149,-7,-208,0xm873,-1063v0,-176,-140,-249,-333,-248r-172,7r0,529v30,-3,61,-4,94,-3v219,3,411,-91,411,-285","w":1246},"\u0159":{"d":"125,-1362v51,-20,75,-33,118,-62v43,78,116,153,170,224r147,-185v14,-19,22,-31,25,-38v44,28,65,41,116,61v-77,66,-174,191,-230,266r-116,0v-50,-74,-143,-181,-213,-252v-8,-7,-13,-12,-17,-14xm148,5v28,-255,19,-642,8,-917v-1,-24,-5,-45,-8,-62v57,9,143,9,200,0v-11,55,-14,97,-18,182v72,-114,182,-243,342,-192v-24,65,-34,97,-36,178v-32,-20,-60,-29,-108,-29v-167,0,-206,156,-206,348v0,118,1,223,4,316v3,59,4,100,6,123v2,23,4,41,7,53v-54,-7,-137,-7,-191,0","w":680},"\u015a":{"d":"430,-1514v76,-124,111,-188,170,-324v92,21,140,19,235,0r2,53v-116,91,-198,157,-312,271r-95,0xm853,-1336v-20,60,-29,89,-43,154r-29,0v-47,-87,-134,-154,-254,-156v-145,-3,-258,100,-256,243v0,63,23,117,69,162v46,45,120,82,219,118v217,78,343,152,351,403v8,243,-212,440,-458,440v-160,0,-283,-43,-359,-126v16,-54,21,-82,30,-141r32,-9v52,98,175,185,313,187v168,2,293,-122,293,-289v0,-69,-23,-128,-69,-175v-46,-47,-119,-88,-220,-123v-128,-44,-219,-96,-274,-157v-54,-60,-81,-140,-81,-240v0,-213,192,-386,410,-382v134,3,241,35,326,91","w":1020},"\u015b":{"d":"715,-1374v-134,104,-202,165,-323,290r-74,0v78,-124,113,-188,174,-324v88,18,131,17,220,0xm107,-706v-4,-162,149,-288,316,-288v100,0,188,27,248,69v-30,52,-42,80,-65,138v-32,-77,-97,-134,-196,-136v-98,-2,-174,72,-170,169v5,122,87,152,208,186v167,47,263,85,269,263v6,185,-167,330,-357,330v-117,0,-207,-22,-269,-73v26,-56,37,-85,57,-145v44,84,120,145,237,147v113,2,208,-75,203,-184v-5,-122,-89,-151,-210,-185v-176,-49,-266,-96,-271,-291","w":793},"\u015e":{"d":"574,289v0,-71,-101,-95,-160,-64r-29,-35r139,-224r102,0r-116,165v115,-14,194,42,196,145v3,164,-204,220,-362,164v-41,-14,-80,-34,-117,-62r41,-70v45,37,121,70,196,71v61,1,110,-32,110,-90xm853,-1336v-20,60,-29,89,-43,154r-29,0v-47,-87,-134,-154,-254,-156v-145,-3,-258,100,-256,243v0,63,23,117,69,162v46,45,120,82,219,118v217,78,343,152,351,403v8,243,-212,440,-458,440v-160,0,-283,-43,-359,-126v16,-54,21,-82,30,-141r32,-9v52,98,175,185,313,187v168,2,293,-122,293,-289v0,-69,-23,-128,-69,-175v-46,-47,-119,-88,-220,-123v-128,-44,-219,-96,-274,-157v-54,-60,-81,-140,-81,-240v0,-213,192,-386,410,-382v134,3,241,35,326,91","w":1020},"\u015f":{"d":"459,270v0,-78,-113,-88,-176,-63r-27,-29r104,-178r77,0r-68,117v116,-20,214,31,214,138v0,160,-200,215,-357,158v-45,-16,-84,-34,-117,-58r40,-68v47,37,123,70,199,71v61,1,111,-31,111,-88xm107,-706v-4,-162,149,-288,316,-288v100,0,188,27,248,69v-30,52,-42,80,-65,138v-32,-77,-97,-134,-196,-136v-98,-2,-174,72,-170,169v5,122,87,152,208,186v167,47,263,85,269,263v6,185,-167,330,-357,330v-117,0,-207,-22,-269,-73v26,-56,37,-85,57,-145v44,84,120,145,237,147v113,2,208,-75,203,-184v-5,-122,-89,-151,-210,-185v-176,-49,-266,-96,-271,-291","w":793},"\u0160":{"d":"193,-1758v70,-27,101,-45,159,-86v42,75,119,158,175,226r145,-174v19,-25,31,-42,34,-50v57,40,87,57,155,84v-96,61,-205,174,-276,244r-116,0v-69,-73,-179,-182,-276,-244xm853,-1336v-20,60,-29,89,-43,154r-29,0v-47,-87,-134,-154,-254,-156v-145,-3,-258,100,-256,243v0,63,23,117,69,162v46,45,120,82,219,118v217,78,343,152,351,403v8,243,-212,440,-458,440v-160,0,-283,-43,-359,-126v16,-54,21,-82,30,-141r32,-9v52,98,175,185,313,187v168,2,293,-122,293,-289v0,-69,-23,-128,-69,-175v-46,-47,-119,-88,-220,-123v-128,-44,-219,-96,-274,-157v-54,-60,-81,-140,-81,-240v0,-213,192,-386,410,-382v134,3,241,35,326,91","w":1020},"\u0161":{"d":"135,-1362v51,-20,75,-33,118,-62v43,78,116,153,170,224r147,-185v14,-19,22,-31,25,-38v44,28,65,41,116,61v-77,66,-174,191,-230,266r-116,0v-50,-74,-143,-181,-213,-252v-8,-7,-13,-12,-17,-14xm107,-706v-4,-162,149,-288,316,-288v100,0,188,27,248,69v-30,52,-42,80,-65,138v-32,-77,-97,-134,-196,-136v-98,-2,-174,72,-170,169v5,122,87,152,208,186v167,47,263,85,269,263v6,185,-167,330,-357,330v-117,0,-207,-22,-269,-73v26,-56,37,-85,57,-145v44,84,120,145,237,147v113,2,208,-75,203,-184v-5,-122,-89,-151,-210,-185v-176,-49,-266,-96,-271,-291","w":793},"\u0162":{"d":"605,289v0,-71,-101,-95,-160,-64r-29,-35r139,-224r102,0r-116,165v115,-14,194,42,196,145v3,164,-204,220,-362,164v-41,-14,-80,-34,-117,-62r41,-70v45,37,122,70,197,71v61,1,109,-32,109,-90xm476,5v28,-356,18,-940,9,-1304r-309,6v-67,3,-112,7,-135,12v8,-37,8,-97,0,-134v75,5,159,11,253,12r323,5v55,0,129,-2,223,-5v94,-3,176,-7,247,-12v-8,37,-8,97,0,134v-98,-15,-287,-18,-413,-17v-5,167,-7,366,-7,598v0,168,1,319,4,453v2,87,5,147,7,181v2,34,3,58,6,71v-59,-7,-149,-7,-208,0"},"\u0163":{"d":"389,270v0,-78,-113,-88,-176,-63r-27,-29r104,-178r77,0r-68,117v116,-20,214,31,214,138v0,160,-200,215,-357,158v-45,-16,-84,-34,-117,-58r40,-68v47,37,123,70,199,71v61,1,111,-31,111,-88xm330,-226v-1,107,41,177,141,178v27,0,54,-8,81,-24v-3,24,-3,36,0,59v-45,25,-95,38,-150,38v-162,-1,-231,-85,-231,-251r0,-654v-48,0,-97,-2,-126,18v5,-51,5,-77,0,-128v29,21,81,16,126,20v1,-69,-1,-156,-16,-205v83,-27,120,-45,191,-86v-18,69,-16,198,-16,292v86,-5,163,7,217,-21v-5,51,-5,77,0,128v-53,-29,-132,-15,-217,-21r0,657","w":566},"\u0164":{"d":"246,-1758v70,-27,101,-45,159,-86v42,75,119,158,175,226r145,-174v19,-25,31,-42,34,-50v57,40,87,57,155,84v-96,61,-205,174,-276,244r-116,0v-69,-73,-179,-182,-276,-244xm476,5v28,-356,18,-940,9,-1304r-309,6v-67,3,-112,7,-135,12v8,-37,8,-97,0,-134v75,5,159,11,253,12r323,5v55,0,129,-2,223,-5v94,-3,176,-7,247,-12v-8,37,-8,97,0,134v-98,-15,-287,-18,-413,-17v-5,167,-7,366,-7,598v0,168,1,319,4,453v2,87,5,147,7,181v2,34,3,58,6,71v-59,-7,-149,-7,-208,0"},"\u0165":{"d":"422,-1073r125,-395v19,-41,47,-75,103,-55v53,18,44,87,17,132r-202,337xm324,-226v-1,107,41,177,141,178v27,0,54,-8,81,-24v-3,24,-3,36,0,59v-45,25,-95,38,-150,38v-162,-1,-231,-85,-231,-251r0,-654v-48,0,-97,-2,-126,18v5,-51,5,-77,0,-128v29,21,81,16,126,20v1,-69,-1,-156,-16,-205v83,-27,120,-45,191,-86v-18,69,-16,198,-16,292v86,-5,163,7,217,-21v-5,51,-5,77,0,128v-53,-29,-132,-15,-217,-21r0,657","w":642},"\u016a":{"d":"517,-1730r644,0r0,124r-644,0r0,-124xm1408,-1404v-30,226,-24,513,-24,794v0,405,-192,638,-586,638v-390,0,-573,-180,-574,-568r-2,-612v-1,-83,-3,-140,-4,-174v-1,-34,-4,-60,-7,-78v59,7,149,7,208,0v-27,225,-21,521,-21,801v0,334,117,524,433,524v349,0,443,-227,441,-606r-2,-467v-1,-85,-3,-144,-4,-178v-1,-34,-3,-59,-6,-74v43,7,105,7,148,0","w":1586},"\u016b":{"d":"279,-1288r602,0r0,117r-602,0r0,-117xm502,26v-200,0,-325,-143,-322,-348r1,-165v0,-116,-1,-220,-4,-311v-1,-53,-3,-92,-5,-115v-2,-23,-5,-44,-8,-61v54,9,137,9,191,0v-28,169,-13,405,-17,607v-3,165,80,283,236,283v205,0,250,-173,250,-403v0,-116,-1,-220,-4,-311v-1,-53,-3,-92,-5,-115v-2,-23,-5,-44,-8,-61v54,9,136,9,190,0v-27,210,-14,548,-14,803v0,74,5,103,14,176v-49,-7,-124,-7,-173,0v10,-59,10,-94,15,-177v-62,109,-188,198,-337,198"},"\u016e":{"d":"839,-1510v-94,0,-171,-77,-171,-171v0,-94,77,-172,171,-172v94,0,172,78,172,172v0,94,-78,171,-172,171xm839,-1602v44,0,80,-36,80,-79v0,-44,-36,-80,-80,-80v-43,0,-79,36,-79,80v0,43,36,79,79,79xm1408,-1404v-30,226,-24,513,-24,794v0,405,-192,638,-586,638v-390,0,-573,-180,-574,-568r-2,-612v-1,-83,-3,-140,-4,-174v-1,-34,-4,-60,-7,-78v59,7,149,7,208,0v-27,225,-21,521,-21,801v0,334,117,524,433,524v349,0,443,-227,441,-606r-2,-467v-1,-85,-3,-144,-4,-178v-1,-34,-3,-59,-6,-74v43,7,105,7,148,0","w":1586},"\u016f":{"d":"580,-1083v-86,0,-157,-71,-157,-157v0,-86,71,-157,157,-157v86,0,157,71,157,157v0,86,-71,157,-157,157xm580,-1166v41,0,75,-33,75,-74v0,-41,-34,-74,-75,-74v-41,0,-75,33,-75,74v0,41,34,74,75,74xm502,26v-200,0,-325,-143,-322,-348r1,-165v0,-116,-1,-220,-4,-311v-1,-53,-3,-92,-5,-115v-2,-23,-5,-44,-8,-61v54,9,137,9,191,0v-28,169,-13,405,-17,607v-3,165,80,283,236,283v205,0,250,-173,250,-403v0,-116,-1,-220,-4,-311v-1,-53,-3,-92,-5,-115v-2,-23,-5,-44,-8,-61v54,9,136,9,190,0v-27,210,-14,548,-14,803v0,74,5,103,14,176v-49,-7,-124,-7,-173,0v10,-59,10,-94,15,-177v-62,109,-188,198,-337,198"},"\u0170":{"d":"994,-1782v-126,96,-194,155,-313,271r-95,0v76,-124,112,-188,171,-324v92,19,140,18,235,0xm1344,-1782v-126,96,-194,155,-313,271r-95,0v76,-124,112,-188,171,-324v92,19,140,18,235,0xm1408,-1404v-30,226,-24,513,-24,794v0,405,-192,638,-586,638v-390,0,-573,-180,-574,-568r-2,-612v-1,-83,-3,-140,-4,-174v-1,-34,-4,-60,-7,-78v59,7,149,7,208,0v-27,225,-21,521,-21,801v0,334,117,524,433,524v349,0,443,-227,441,-606r-2,-467v-1,-85,-3,-144,-4,-178v-1,-34,-3,-59,-6,-74v43,7,105,7,148,0","w":1586},"\u0171":{"d":"729,-1375v-134,105,-201,166,-323,291r-74,0v78,-124,113,-188,174,-324v88,18,131,17,220,0xm1052,-1375v-134,105,-201,166,-323,291r-74,0v78,-124,113,-188,174,-324v88,18,131,17,220,0xm502,26v-200,0,-325,-143,-322,-348r1,-165v0,-116,-1,-220,-4,-311v-1,-53,-3,-92,-5,-115v-2,-23,-5,-44,-8,-61v54,9,137,9,191,0v-28,169,-13,405,-17,607v-3,165,80,283,236,283v205,0,250,-173,250,-403v0,-116,-1,-220,-4,-311v-1,-53,-3,-92,-5,-115v-2,-23,-5,-44,-8,-61v54,9,136,9,190,0v-27,210,-14,548,-14,803v0,